<?xml version="1.0"?>
<opencv_storage>
<cascade>
  <stageType>BOOST</stageType>
  <featureType>HAAR</featureType>
  <height>24</height>
  <width>24</width>
  <stageParams>
    <boostType>GAB</boostType>
    <minHitRate>9.9500000476837158e-01</minHitRate>
    <maxFalseAlarm>5.0000000000000000e-01</maxFalseAlarm>
    <weightTrimRate>9.4999998807907104e-01</weightTrimRate>
    <maxDepth>1</maxDepth>
    <maxWeakCount>100</maxWeakCount></stageParams>
  <featureParams>
    <maxCatCount>0</maxCatCount>
    <featSize>1</featSize>
    <mode>BASIC</mode></featureParams>
  <stageNum>15</stageNum>
  <stages>
    <!-- stage 0 -->
    <_>
      <maxWeakCount>14</maxWeakCount>
      <stageThreshold>-1.7733173370361328e+00</stageThreshold>
      <weakClassifiers>
        <_>
          <internalNodes>
            0 -1 296 -6.6832140088081360e-02</internalNodes>
          <leafValues>
            5.1624935865402222e-01 -6.3271802663803101e-01</leafValues></_>
        <_>
          <internalNodes>
            0 -1 18 -1.2390990555286407e-01</internalNodes>
          <leafValues>
            3.9677312970161438e-01 -6.4707463979721069e-01</leafValues></_>
        <_>
          <internalNodes>
            0 -1 39 -1.6897631576284766e-04</internalNodes>
          <leafValues>
            -6.9196480512619019e-01 1.8608185648918152e-01</leafValues></_>
        <_>
          <internalNodes>
            0 -1 39 1.4636520063504577e-04</internalNodes>
          <leafValues>
            3.4966430068016052e-01 -6.9636696577072144e-01</leafValues></_>
        <_>
          <internalNodes>
            0 -1 88 7.6859727501869202e-02</internalNodes>
          <leafValues>
            -3.2411065697669983e-01 3.9227667450904846e-01</leafValues></_>
        <_>
          <internalNodes>
            0 -1 133 -2.2561565856449306e-04</internalNodes>
          <leafValues>
            -6.1353278160095215e-01 1.8628625571727753e-01</leafValues></_>
        <_>
          <internalNodes>
            0 -1 136 1.6841564502101392e-04</internalNodes>
          <leafValues>
            1.4683900773525238e-01 -4.9769154191017151e-01</leafValues></_>
        <_>
          <internalNodes>
            0 -1 143 -7.4094481533393264e-05</internalNodes>
          <leafValues>
            -4.2880293726921082e-01 2.3312038183212280e-01</leafValues></_>
        <_>
          <internalNodes>
            0 -1 381 1.2566309422254562e-02</internalNodes>
          <leafValues>
            -2.1802881360054016e-01 5.5094218254089355e-01</leafValues></_>
        <_>
          <internalNodes>
            0 -1 471 1.8413118959870189e-04</internalNodes>
          <leafValues>
            2.0899438858032227e-01 -4.5675110816955566e-01</leafValues></_>
        <_>
          <internalNodes>
            0 -1 467 -2.8922996716573834e-04</internalNodes>
          <leafValues>
            -4.5383206009864807e-01 1.5796214342117310e-01</leafValues></_>
        <_>
          <internalNodes>
            0 -1 364 -1.4987951144576073e-02</internalNodes>
          <leafValues>
            4.7357428073883057e-01 -1.6336682438850403e-01</leafValues></_>
        <_>
          <internalNodes>
            0 -1 294 -1.0824632772710174e-04</internalNodes>
          <leafValues>
            -3.8379138708114624e-01 2.0188580453395844e-01</leafValues></_>
        <_>
          <internalNodes>
            0 -1 149 -1.0884869843721390e-03</internalNodes>
          <leafValues>
            2.6255738735198975e-01 -2.7549493312835693e-01</leafValues></_></weakClassifiers></_>
    <!-- stage 1 -->
    <_>
      <maxWeakCount>17</maxWeakCount>
      <stageThreshold>-1.6954331398010254e+00</stageThreshold>
      <weakClassifiers>
        <_>
          <internalNodes>
            0 -1 65 -1.5107211470603943e-01</internalNodes>
          <leafValues>
            3.5821536183357239e-01 -6.8973213434219360e-01</leafValues></_>
        <_>
          <internalNodes>
            0 -1 42 -3.4116508322767913e-04</internalNodes>
          <leafValues>
            -7.0312595367431641e-01 1.8141111731529236e-01</leafValues></_>
        <_>
          <internalNodes>
            0 -1 42 2.2273181821219623e-04</internalNodes>
          <leafValues>
            2.8126823902130127e-01 -6.4491719007492065e-01</leafValues></_>
        <_>
          <internalNodes>
            0 -1 191 -1.8056088685989380e-01</internalNodes>
          <leafValues>
            4.1476348042488098e-01 -3.9675417542457581e-01</leafValues></_>
        <_>
          <internalNodes>
            0 -1 39 -1.9108258129563183e-04</internalNodes>
          <leafValues>
            -5.4819607734680176e-01 2.5282996892929077e-01</leafValues></_>
        <_>
          <internalNodes>
            0 -1 39 2.2433479898609221e-04</internalNodes>
          <leafValues>
            1.5804116427898407e-01 -5.9573841094970703e-01</leafValues></_>
        <_>
          <internalNodes>
            0 -1 450 -1.9372618407942355e-04</internalNodes>
          <leafValues>
            -5.3280186653137207e-01 1.7561565339565277e-01</leafValues></_>
        <_>
          <internalNodes>
            0 -1 450 1.9883997447323054e-04</internalNodes>
          <leafValues>
            2.4217763543128967e-01 -6.1525648832321167e-01</leafValues></_>
        <_>
          <internalNodes>
            0 -1 183 -7.3640025220811367e-05</internalNodes>
          <leafValues>
            -4.9079117178916931e-01 1.7597478628158569e-01</leafValues></_>
        <_>
          <internalNodes>
            0 -1 183 2.0813925948459655e-04</internalNodes>
          <leafValues>
            1.2206171452999115e-01 -6.0636454820632935e-01</leafValues></_>
        <_>
          <internalNodes>
            0 -1 24 -9.8211597651243210e-03</internalNodes>
          <leafValues>
            3.6506965756416321e-01 -2.1368245780467987e-01</leafValues></_>
        <_>
          <internalNodes>
            0 -1 100 2.7297431370243430e-04</internalNodes>
          <leafValues>
            1.4234578609466553e-01 -4.5550489425659180e-01</leafValues></_>
        <_>
          <internalNodes>
            0 -1 100 -2.0134939404670149e-04</internalNodes>
          <leafValues>
            -4.1640028357505798e-01 1.6156342625617981e-01</leafValues></_>
        <_>
          <internalNodes>
            0 -1 36 -2.1765105426311493e-02</internalNodes>
          <leafValues>
            4.3045112490653992e-01 -1.8404126167297363e-01</leafValues></_>
        <_>
          <internalNodes>
            0 -1 87 -3.6299802362918854e-02</internalNodes>
          <leafValues>
            3.9334741234779358e-01 -1.6883416473865509e-01</leafValues></_>
        <_>
          <internalNodes>
            0 -1 195 -1.5760163660161197e-04</internalNodes>
          <leafValues>
            -3.5295826196670532e-01 1.9411276280879974e-01</leafValues></_>
        <_>
          <internalNodes>
            0 -1 412 -6.6564390435814857e-03</internalNodes>
          <leafValues>
            4.0033543109893799e-01 -1.6554605960845947e-01</leafValues></_></weakClassifiers></_>
    <!-- stage 2 -->
    <_>
      <maxWeakCount>20</maxWeakCount>
      <stageThreshold>-1.6849943399429321e+00</stageThreshold>
      <weakClassifiers>
        <_>
          <internalNodes>
            0 -1 78 -4.9523964524269104e-02</internalNodes>
          <leafValues>
            1.3718782365322113e-01 -6.7748093605041504e-01</leafValues></_>
        <_>
          <internalNodes>
            0 -1 312 -1.3652625679969788e-01</internalNodes>
          <leafValues>
            3.7345615029335022e-01 -4.0656116604804993e-01</leafValues></_>
        <_>
          <internalNodes>
            0 -1 28 -1.4671785174869001e-04</internalNodes>
          <leafValues>
            -6.7201155424118042e-01 1.8101964890956879e-01</leafValues></_>
        <_>
          <internalNodes>
            0 -1 28 1.1492335761431605e-04</internalNodes>
          <leafValues>
            2.9212766885757446e-01 -6.3197869062423706e-01</leafValues></_>
        <_>
          <internalNodes>
            0 -1 120 -1.3034528819844127e-04</internalNodes>
          <leafValues>
            -5.3937655687332153e-01 1.3917885720729828e-01</leafValues></_>
        <_>
          <internalNodes>
            0 -1 120 2.6934829656966031e-04</internalNodes>
          <leafValues>
            1.8307945132255554e-01 -5.2586621046066284e-01</leafValues></_>
        <_>
          <internalNodes>
            0 -1 328 6.9827795960009098e-03</internalNodes>
          <leafValues>
            -2.0600396394729614e-01 5.0828248262405396e-01</leafValues></_>
        <_>
          <internalNodes>
            0 -1 143 -7.3450071795377880e-05</internalNodes>
          <leafValues>
            -4.9599257111549377e-01 1.4297048747539520e-01</leafValues></_>
        <_>
          <internalNodes>
            0 -1 359 4.7196685336530209e-03</internalNodes>
          <leafValues>
            -2.3083411157131195e-01 3.3141335844993591e-01</leafValues></_>
        <_>
          <internalNodes>
            0 -1 343 -1.5931110829114914e-02</internalNodes>
          <leafValues>
            2.1788640320301056e-01 -3.1801530718803406e-01</leafValues></_>
        <_>
          <internalNodes>
            0 -1 332 7.9336948692798615e-03</internalNodes>
          <leafValues>
            -1.8877911567687988e-01 3.9261350035667419e-01</leafValues></_>
        <_>
          <internalNodes>
            0 -1 86 2.0177361147943884e-04</internalNodes>
          <leafValues>
            1.7291891574859619e-01 -3.9959213137626648e-01</leafValues></_>
        <_>
          <internalNodes>
            0 -1 389 1.3916868716478348e-02</internalNodes>
          <leafValues>
            -1.5863333642482758e-01 4.9960207939147949e-01</leafValues></_>
        <_>
          <internalNodes>
            0 -1 383 -1.0806312784552574e-02</internalNodes>
          <leafValues>
            4.3506190180778503e-01 -2.0003679394721985e-01</leafValues></_>
        <_>
          <internalNodes>
            0 -1 84 -9.7465410362929106e-05</internalNodes>
          <leafValues>
            -3.6255413293838501e-01 1.9495435059070587e-01</leafValues></_>
        <_>
          <internalNodes>
            0 -1 202 -1.7813470214605331e-02</internalNodes>
          <leafValues>
            4.5305535197257996e-01 -1.6300256550312042e-01</leafValues></_>
        <_>
          <internalNodes>
            0 -1 492 -1.1833057214971632e-05</internalNodes>
          <leafValues>
            2.4041195213794708e-01 -2.7156803011894226e-01</leafValues></_>
        <_>
          <internalNodes>
            0 -1 497 -1.0577614011708647e-04</internalNodes>
          <leafValues>
            -4.3194127082824707e-01 1.4358365535736084e-01</leafValues></_>
        <_>
          <internalNodes>
            0 -1 300 -2.4428725242614746e-02</internalNodes>
          <leafValues>
            4.3330699205398560e-01 -1.3650040328502655e-01</leafValues></_>
        <_>
          <internalNodes>
            0 -1 403 2.0246673375368118e-04</internalNodes>
          <leafValues>
            1.4472213387489319e-01 -4.1499257087707520e-01</leafValues></_></weakClassifiers></_>
    <!-- stage 3 -->
    <_>
      <maxWeakCount>22</maxWeakCount>
      <stageThreshold>-1.5311868190765381e+00</stageThreshold>
      <weakClassifiers>
        <_>
          <internalNodes>
            0 -1 43 -1.4188803732395172e-01</internalNodes>
          <leafValues>
            1.3993424177169800e-01 -6.1437338590621948e-01</leafValues></_>
        <_>
          <internalNodes>
            0 -1 297 -4.7120232135057449e-02</internalNodes>
          <leafValues>
            2.9714715480804443e-01 -4.7501122951507568e-01</leafValues></_>
        <_>
          <internalNodes>
            0 -1 129 -1.4138831465970725e-04</internalNodes>
          <leafValues>
            -5.6595635414123535e-01 1.5731428563594818e-01</leafValues></_>
        <_>
          <internalNodes>
            0 -1 130 2.0127811876591295e-04</internalNodes>
          <leafValues>
            2.3551841080188751e-01 -5.1835441589355469e-01</leafValues></_>
        <_>
          <internalNodes>
            0 -1 514 -2.5683866624603979e-05</internalNodes>
          <leafValues>
            2.7002522349357605e-01 -3.2984098792076111e-01</leafValues></_>
        <_>
          <internalNodes>
            0 -1 49 1.5618250472471118e-04</internalNodes>
          <leafValues>
            1.6763031482696533e-01 -5.1916182041168213e-01</leafValues></_>
        <_>
          <internalNodes>
            0 -1 44 -8.6724787252023816e-05</internalNodes>
          <leafValues>
            -4.9461698532104492e-01 1.7778262495994568e-01</leafValues></_>
        <_>
          <internalNodes>
            0 -1 345 -3.1124446541070938e-03</internalNodes>
          <leafValues>
            3.9964568614959717e-01 -2.1145378053188324e-01</leafValues></_>
        <_>
          <internalNodes>
            0 -1 345 3.5260831937193871e-03</internalNodes>
          <leafValues>
            -1.4629487693309784e-01 4.9692744016647339e-01</leafValues></_>
        <_>
          <internalNodes>
            0 -1 274 3.4076392650604248e-02</internalNodes>
          <leafValues>
            -1.8726739287376404e-01 3.3511513471603394e-01</leafValues></_>
        <_>
          <internalNodes>
            0 -1 27 -9.9161125035607256e-06</internalNodes>
          <leafValues>
            -3.9669203758239746e-01 1.5366700291633606e-01</leafValues></_>
        <_>
          <internalNodes>
            0 -1 111 1.0225757432635874e-04</internalNodes>
          <leafValues>
            1.5362554788589478e-01 -4.4530284404754639e-01</leafValues></_>
        <_>
          <internalNodes>
            0 -1 204 -2.1930433809757233e-02</internalNodes>
          <leafValues>
            5.2174752950668335e-01 -1.6103258728981018e-01</leafValues></_>
        <_>
          <internalNodes>
            0 -1 372 -6.7244246602058411e-03</internalNodes>
          <leafValues>
            4.4548749923706055e-01 -9.8362863063812256e-02</leafValues></_>
        <_>
          <internalNodes>
            0 -1 392 2.6778874453157187e-03</internalNodes>
          <leafValues>
            -1.9641625881195068e-01 3.2219663262367249e-01</leafValues></_>
        <_>
          <internalNodes>
            0 -1 112 -1.6403576591983438e-04</internalNodes>
          <leafValues>
            -4.3449521064758301e-01 1.5675535798072815e-01</leafValues></_>
        <_>
          <internalNodes>
            0 -1 248 -7.7111052814871073e-04</internalNodes>
          <leafValues>
            2.0716756582260132e-01 -2.6418447494506836e-01</leafValues></_>
        <_>
          <internalNodes>
            0 -1 322 -3.0936800612835214e-05</internalNodes>
          <leafValues>
            2.3129269480705261e-01 -2.5118014216423035e-01</leafValues></_>
        <_>
          <internalNodes>
            0 -1 422 -1.9592341035604477e-02</internalNodes>
          <leafValues>
            4.3184465169906616e-01 -1.3911858201026917e-01</leafValues></_>
        <_>
          <internalNodes>
            0 -1 44 1.5408467152155936e-04</internalNodes>
          <leafValues>
            1.3010036945343018e-01 -4.4582065939903259e-01</leafValues></_>
        <_>
          <internalNodes>
            0 -1 456 -1.1431508464738727e-03</internalNodes>
          <leafValues>
            3.2852965593338013e-01 -1.7187464237213135e-01</leafValues></_>
        <_>
          <internalNodes>
            0 -1 484 1.7713633133098483e-04</internalNodes>
          <leafValues>
            1.2511652708053589e-01 -4.5084077119827271e-01</leafValues></_></weakClassifiers></_>
    <!-- stage 4 -->
    <_>
      <maxWeakCount>28</maxWeakCount>
      <stageThreshold>-1.5357942581176758e+00</stageThreshold>
      <weakClassifiers>
        <_>
          <internalNodes>
            0 -1 94 1.8546290695667267e-02</internalNodes>
          <leafValues>
            -4.3926998972892761e-01 2.0478001236915588e-01</leafValues></_>
        <_>
          <internalNodes>
            0 -1 117 -9.6773437689989805e-05</internalNodes>
          <leafValues>
            -6.1495441198348999e-01 1.5564872324466705e-01</leafValues></_>
        <_>
          <internalNodes>
            0 -1 122 -1.1347331746947020e-04</internalNodes>
          <leafValues>
            -6.1092817783355713e-01 1.5758910775184631e-01</leafValues></_>
        <_>
          <internalNodes>
            0 -1 116 1.1730133337550797e-05</internalNodes>
          <leafValues>
            1.9457571208477020e-01 -4.1596618294715881e-01</leafValues></_>
        <_>
          <internalNodes>
            0 -1 377 -2.6748217642307281e-02</internalNodes>
          <leafValues>
            2.4648472666740417e-01 -2.9618895053863525e-01</leafValues></_>
        <_>
          <internalNodes>
            0 -1 17 1.6389541327953339e-02</internalNodes>
          <leafValues>
            1.0636627674102783e-01 -6.1800932884216309e-01</leafValues></_>
        <_>
          <internalNodes>
            0 -1 436 -1.0588875738903880e-04</internalNodes>
          <leafValues>
            -4.3992355465888977e-01 1.3903969526290894e-01</leafValues></_>
        <_>
          <internalNodes>
            0 -1 436 9.4162489403970540e-05</internalNodes>
          <leafValues>
            1.9227991998195648e-01 -3.7756004929542542e-01</leafValues></_>
        <_>
          <internalNodes>
            0 -1 517 -2.5551498765707947e-05</internalNodes>
          <leafValues>
            1.7095002532005310e-01 -3.3489388227462769e-01</leafValues></_>
        <_>
          <internalNodes>
            0 -1 141 1.0410629329271615e-05</internalNodes>
          <leafValues>
            1.3714240491390228e-01 -3.6478146910667419e-01</leafValues></_>
        <_>
          <internalNodes>
            0 -1 355 4.8865647986531258e-03</internalNodes>
          <leafValues>
            -1.1118136346340179e-01 4.3113544583320618e-01</leafValues></_>
        <_>
          <internalNodes>
            0 -1 0 7.4651630711741745e-05</internalNodes>
          <leafValues>
            1.2461043894290924e-01 -3.8610109686851501e-01</leafValues></_>
        <_>
          <internalNodes>
            0 -1 5 -9.5922914624679834e-05</internalNodes>
          <leafValues>
            -4.0402361750602722e-01 1.4941649138927460e-01</leafValues></_>
        <_>
          <internalNodes>
            0 -1 176 8.9897215366363525e-03</internalNodes>
          <leafValues>
            -2.2282919287681580e-01 2.6819869875907898e-01</leafValues></_>
        <_>
          <internalNodes>
            0 -1 515 -1.3530360592994839e-04</internalNodes>
          <leafValues>
            -4.0629070997238159e-01 1.1802559345960617e-01</leafValues></_>
        <_>
          <internalNodes>
            0 -1 406 -1.2920873705297709e-03</internalNodes>
          <leafValues>
            1.9823336601257324e-01 -2.5972932577133179e-01</leafValues></_>
        <_>
          <internalNodes>
            0 -1 80 -2.4184755980968475e-02</internalNodes>
          <leafValues>
            3.9953187108039856e-01 -1.3555948436260223e-01</leafValues></_>
        <_>
          <internalNodes>
            0 -1 455 4.9937707372009754e-03</internalNodes>
          <leafValues>
            -9.6127413213253021e-02 4.3154236674308777e-01</leafValues></_>
        <_>
          <internalNodes>
            0 -1 488 -2.8987193945795298e-04</internalNodes>
          <leafValues>
            3.1199336051940918e-01 -1.8084274232387543e-01</leafValues></_>
        <_>
          <internalNodes>
            0 -1 126 -7.4231822509318590e-05</internalNodes>
          <leafValues>
            -3.9639425277709961e-01 1.1711686104536057e-01</leafValues></_>
        <_>
          <internalNodes>
            0 -1 393 2.9751785099506378e-02</internalNodes>
          <leafValues>
            -1.0582939535379410e-01 4.6278357505798340e-01</leafValues></_>
        <_>
          <internalNodes>
            0 -1 258 9.3715703114867210e-03</internalNodes>
          <leafValues>
            -1.2059792131185532e-01 3.5036179423332214e-01</leafValues></_>
        <_>
          <internalNodes>
            0 -1 29 1.2402285356074572e-03</internalNodes>
          <leafValues>
            8.1237845122814178e-02 -6.4094585180282593e-01</leafValues></_>
        <_>
          <internalNodes>
            0 -1 269 5.5420487187802792e-03</internalNodes>
          <leafValues>
            -1.5160143375396729e-01 2.9402226209640503e-01</leafValues></_>
        <_>
          <internalNodes>
            0 -1 309 -7.7834143303334713e-04</internalNodes>
          <leafValues>
            1.8276531994342804e-01 -2.4073220789432526e-01</leafValues></_>
        <_>
          <internalNodes>
            0 -1 525 -1.7146475147455931e-04</internalNodes>
          <leafValues>
            -3.7169441580772400e-01 1.0453382879495621e-01</leafValues></_>
        <_>
          <internalNodes>
            0 -1 525 1.2998589954804629e-04</internalNodes>
          <leafValues>
            1.4634463191032410e-01 -3.7625461816787720e-01</leafValues></_>
        <_>
          <internalNodes>
            0 -1 388 3.1099112238734961e-03</internalNodes>
          <leafValues>
            -1.2601786851882935e-01 3.6016726493835449e-01</leafValues></_></weakClassifiers></_>
    <!-- stage 5 -->
    <_>
      <maxWeakCount>33</maxWeakCount>
      <stageThreshold>-1.5329335927963257e+00</stageThreshold>
      <weakClassifiers>
        <_>
          <internalNodes>
            0 -1 65 -1.8792632222175598e-01</internalNodes>
          <leafValues>
            1.4061887562274933e-01 -5.5879968404769897e-01</leafValues></_>
        <_>
          <internalNodes>
            0 -1 96 -1.3382697943598032e-04</internalNodes>
          <leafValues>
            -5.8135932683944702e-01 1.2190856784582138e-01</leafValues></_>
        <_>
          <internalNodes>
            0 -1 96 1.2719837832264602e-04</internalNodes>
          <leafValues>
            2.3157423734664917e-01 -4.7047835588455200e-01</leafValues></_>
        <_>
          <internalNodes>
            0 -1 495 -2.2252394046518020e-05</internalNodes>
          <leafValues>
            1.4698339998722076e-01 -3.4832441806793213e-01</leafValues></_>
        <_>
          <internalNodes>
            0 -1 192 7.9701945651322603e-05</internalNodes>
          <leafValues>
            1.7533010244369507e-01 -3.8018813729286194e-01</leafValues></_>
        <_>
          <internalNodes>
            0 -1 214 -8.9786102762445807e-05</internalNodes>
          <leafValues>
            -4.3361082673072815e-01 1.3696172833442688e-01</leafValues></_>
        <_>
          <internalNodes>
            0 -1 213 1.5524894115515053e-04</internalNodes>
          <leafValues>
            1.9749920070171356e-01 -4.1305992007255554e-01</leafValues></_>
        <_>
          <internalNodes>
            0 -1 321 -2.0932819461449981e-04</internalNodes>
          <leafValues>
            2.4231421947479248e-01 -2.1602880954742432e-01</leafValues></_>
        <_>
          <internalNodes>
            0 -1 482 -9.1545967734418809e-05</internalNodes>
          <leafValues>
            1.6677275300025940e-01 -2.9603680968284607e-01</leafValues></_>
        <_>
          <internalNodes>
            0 -1 484 7.7607379353139549e-05</internalNodes>
          <leafValues>
            1.3642275333404541e-01 -3.3877670764923096e-01</leafValues></_>
        <_>
          <internalNodes>
            0 -1 51 -1.9896663725376129e-02</internalNodes>
          <leafValues>
            3.1689128279685974e-01 -1.6375531256198883e-01</leafValues></_>
        <_>
          <internalNodes>
            0 -1 34 -1.4153619122225791e-04</internalNodes>
          <leafValues>
            -4.1005879640579224e-01 1.1101080477237701e-01</leafValues></_>
        <_>
          <internalNodes>
            0 -1 511 -1.0780288721434772e-04</internalNodes>
          <leafValues>
            -3.3785513043403625e-01 1.3929264247417450e-01</leafValues></_>
        <_>
          <internalNodes>
            0 -1 391 -1.7623307649046183e-03</internalNodes>
          <leafValues>
            4.7580149769783020e-01 -1.0158904641866684e-01</leafValues></_>
        <_>
          <internalNodes>
            0 -1 143 -1.1158015695400536e-05</internalNodes>
          <leafValues>
            -3.8198128342628479e-01 1.3052915036678314e-01</leafValues></_>
        <_>
          <internalNodes>
            0 -1 394 1.6579239163547754e-03</internalNodes>
          <leafValues>
            -1.0735444724559784e-01 4.5011630654335022e-01</leafValues></_>
        <_>
          <internalNodes>
            0 -1 484 -1.3790681259706616e-04</internalNodes>
          <leafValues>
            -3.8509511947631836e-01 1.1620301753282547e-01</leafValues></_>
        <_>
          <internalNodes>
            0 -1 366 1.2660773470997810e-02</internalNodes>
          <leafValues>
            -1.4138464629650116e-01 3.3750167489051819e-01</leafValues></_>
        <_>
          <internalNodes>
            0 -1 427 -1.5488988719880581e-04</internalNodes>
          <leafValues>
            2.4138048291206360e-01 -2.0603661239147186e-01</leafValues></_>
        <_>
          <internalNodes>
            0 -1 243 -6.4539199229329824e-05</internalNodes>
          <leafValues>
            2.2334526479244232e-01 -2.3105981945991516e-01</leafValues></_>
        <_>
          <internalNodes>
            0 -1 444 1.2553858105093241e-03</internalNodes>
          <leafValues>
            -1.5370564162731171e-01 3.2714170217514038e-01</leafValues></_>
        <_>
          <internalNodes>
            0 -1 473 -2.0113787613809109e-03</internalNodes>
          <leafValues>
            3.4157708287239075e-01 -1.5360501408576965e-01</leafValues></_>
        <_>
          <internalNodes>
            0 -1 529 -2.1987725631333888e-04</internalNodes>
          <leafValues>
            -4.1382947564125061e-01 1.2392423301935196e-01</leafValues></_>
        <_>
          <internalNodes>
            0 -1 299 1.2028581462800503e-02</internalNodes>
          <leafValues>
            -9.8630122840404510e-02 4.9783268570899963e-01</leafValues></_>
        <_>
          <internalNodes>
            0 -1 212 -1.0208769526798278e-04</internalNodes>
          <leafValues>
            -3.4437161684036255e-01 1.3819518685340881e-01</leafValues></_>
        <_>
          <internalNodes>
            0 -1 1 1.0413884410809260e-05</internalNodes>
          <leafValues>
            1.4260764420032501e-01 -2.6831540465354919e-01</leafValues></_>
        <_>
          <internalNodes>
            0 -1 459 -3.7310367915779352e-03</internalNodes>
          <leafValues>
            3.6230686306953430e-01 -1.1569994688034058e-01</leafValues></_>
        <_>
          <internalNodes>
            0 -1 344 -1.7124606529250741e-04</internalNodes>
          <leafValues>
            1.4913362264633179e-01 -2.4464340507984161e-01</leafValues></_>
        <_>
          <internalNodes>
            0 -1 120 -7.7625270932912827e-05</internalNodes>
          <leafValues>
            -2.9312458634376526e-01 1.2385290116071701e-01</leafValues></_>
        <_>
          <internalNodes>
            0 -1 272 2.9893082100898027e-03</internalNodes>
          <leafValues>
            -1.1882826685905457e-01 3.3895733952522278e-01</leafValues></_>
        <_>
          <internalNodes>
            0 -1 238 8.6890682578086853e-03</internalNodes>
          <leafValues>
            -7.8512042760848999e-02 4.5632559061050415e-01</leafValues></_>
        <_>
          <internalNodes>
            0 -1 177 7.2255556005984545e-05</internalNodes>
          <leafValues>
            1.4390280842781067e-01 -2.6851499080657959e-01</leafValues></_>
        <_>
          <internalNodes>
            0 -1 85 -5.0028567202389240e-03</internalNodes>
          <leafValues>
            4.9548730254173279e-01 -8.7379440665245056e-02</leafValues></_></weakClassifiers></_>
    <!-- stage 6 -->
    <_>
      <maxWeakCount>39</maxWeakCount>
      <stageThreshold>-1.5553555488586426e+00</stageThreshold>
      <weakClassifiers>
        <_>
          <internalNodes>
            0 -1 249 -4.9002449959516525e-02</internalNodes>
          <leafValues>
            2.1056041121482849e-02 -5.6107658147811890e-01</leafValues></_>
        <_>
          <internalNodes>
            0 -1 278 -6.7389640025794506e-04</internalNodes>
          <leafValues>
            1.9339779019355774e-01 -4.4399192929267883e-01</leafValues></_>
        <_>
          <internalNodes>
            0 -1 396 1.0373633354902267e-02</internalNodes>
          <leafValues>
            -2.5777810811996460e-01 2.8969806432723999e-01</leafValues></_>
        <_>
          <internalNodes>
            0 -1 40 2.8717920940835029e-05</internalNodes>
          <leafValues>
            -3.4878799319267273e-01 1.9212469458580017e-01</leafValues></_>
        <_>
          <internalNodes>
            0 -1 47 7.0989355444908142e-03</internalNodes>
          <leafValues>
            1.3825483620166779e-01 -6.2244069576263428e-01</leafValues></_>
        <_>
          <internalNodes>
            0 -1 134 -2.3510585378971882e-05</internalNodes>
          <leafValues>
            2.0633508265018463e-01 -3.0057969689369202e-01</leafValues></_>
        <_>
          <internalNodes>
            0 -1 34 2.4179040337912738e-04</internalNodes>
          <leafValues>
            1.0332108289003372e-01 -5.1671725511550903e-01</leafValues></_>
        <_>
          <internalNodes>
            0 -1 29 2.3497705115005374e-05</internalNodes>
          <leafValues>
            -2.6362738013267517e-01 1.6198396682739258e-01</leafValues></_>
        <_>
          <internalNodes>
            0 -1 513 -2.1717238269047812e-05</internalNodes>
          <leafValues>
            1.6828610002994537e-01 -2.5914546847343445e-01</leafValues></_>
        <_>
          <internalNodes>
            0 -1 330 2.7703675441443920e-03</internalNodes>
          <leafValues>
            -1.4082971215248108e-01 3.3720675110816956e-01</leafValues></_>
        <_>
          <internalNodes>
            0 -1 125 1.1257588863372803e-02</internalNodes>
          <leafValues>
            9.8999753594398499e-02 -5.0978463888168335e-01</leafValues></_>
        <_>
          <internalNodes>
            0 -1 502 -2.9310968238860369e-04</internalNodes>
          <leafValues>
            -3.7939834594726563e-01 8.7470985949039459e-02</leafValues></_>
        <_>
          <internalNodes>
            0 -1 405 -3.0141777824610472e-04</internalNodes>
          <leafValues>
            1.8286524713039398e-01 -2.3337990045547485e-01</leafValues></_>
        <_>
          <internalNodes>
            0 -1 329 -3.9567118510603905e-03</internalNodes>
          <leafValues>
            3.6403223872184753e-01 -1.0340684652328491e-01</leafValues></_>
        <_>
          <internalNodes>
            0 -1 90 1.9832596182823181e-02</internalNodes>
          <leafValues>
            -1.3187104463577271e-01 3.1879851222038269e-01</leafValues></_>
        <_>
          <internalNodes>
            0 -1 105 -7.1101399953477085e-05</internalNodes>
          <leafValues>
            -3.5860836505889893e-01 1.2990389764308929e-01</leafValues></_>
        <_>
          <internalNodes>
            0 -1 11 8.1949081504717469e-05</internalNodes>
          <leafValues>
            1.0707502812147141e-01 -3.3732256293296814e-01</leafValues></_>
        <_>
          <internalNodes>
            0 -1 489 -6.8200018722563982e-04</internalNodes>
          <leafValues>
            2.4408677220344543e-01 -1.5925087034702301e-01</leafValues></_>
        <_>
          <internalNodes>
            0 -1 480 -1.1136174725834280e-04</internalNodes>
          <leafValues>
            -3.3641245961189270e-01 1.4071308076381683e-01</leafValues></_>
        <_>
          <internalNodes>
            0 -1 7 -1.3926709652878344e-04</internalNodes>
          <leafValues>
            2.0887635648250580e-01 -1.8225543200969696e-01</leafValues></_>
        <_>
          <internalNodes>
            0 -1 105 1.2239030911587179e-04</internalNodes>
          <leafValues>
            1.1393663287162781e-01 -3.5237002372741699e-01</leafValues></_>
        <_>
          <internalNodes>
            0 -1 289 2.0698903128504753e-02</internalNodes>
          <leafValues>
            -8.4801726043224335e-02 5.3926354646682739e-01</leafValues></_>
        <_>
          <internalNodes>
            0 -1 231 3.5745848435908556e-05</internalNodes>
          <leafValues>
            -2.1842880547046661e-01 1.7037357389926910e-01</leafValues></_>
        <_>
          <internalNodes>
            0 -1 203 -2.8185326606035233e-02</internalNodes>
          <leafValues>
            4.3355458974838257e-01 -8.9713007211685181e-02</leafValues></_>
        <_>
          <internalNodes>
            0 -1 486 -3.3592153340578079e-04</internalNodes>
          <leafValues>
            -3.2074546813964844e-01 1.1463771760463715e-01</leafValues></_>
        <_>
          <internalNodes>
            0 -1 327 -1.8494825344532728e-03</internalNodes>
          <leafValues>
            3.3608591556549072e-01 -1.0918702930212021e-01</leafValues></_>
        <_>
          <internalNodes>
            0 -1 334 1.1304761283099651e-03</internalNodes>
          <leafValues>
            -1.5037073194980621e-01 2.3000526428222656e-01</leafValues></_>
        <_>
          <internalNodes>
            0 -1 481 2.2877255105413496e-04</internalNodes>
          <leafValues>
            1.0319004207849503e-01 -3.6573353409767151e-01</leafValues></_>
        <_>
          <internalNodes>
            0 -1 225 -1.0861342889256775e-04</internalNodes>
          <leafValues>
            1.8596966564655304e-01 -1.7147590219974518e-01</leafValues></_>
        <_>
          <internalNodes>
            0 -1 423 -4.2228744132444263e-04</internalNodes>
          <leafValues>
            3.4934556484222412e-01 -9.5764651894569397e-02</leafValues></_>
        <_>
          <internalNodes>
            0 -1 280 2.9580580303445458e-04</internalNodes>
          <leafValues>
            8.9740745723247528e-02 -4.1260522603988647e-01</leafValues></_>
        <_>
          <internalNodes>
            0 -1 280 -1.4154770178720355e-04</internalNodes>
          <leafValues>
            -3.3353102207183838e-01 1.0072015225887299e-01</leafValues></_>
        <_>
          <internalNodes>
            0 -1 410 3.8964097620919347e-04</internalNodes>
          <leafValues>
            -1.3454689085483551e-01 2.6510438323020935e-01</leafValues></_>
        <_>
          <internalNodes>
            0 -1 15 9.6754673868417740e-03</internalNodes>
          <leafValues>
            -8.4670722484588623e-02 3.9701166749000549e-01</leafValues></_>
        <_>
          <internalNodes>
            0 -1 173 -6.9715693825855851e-05</internalNodes>
          <leafValues>
            -2.8315171599388123e-01 1.3376794755458832e-01</leafValues></_>
        <_>
          <internalNodes>
            0 -1 113 7.1241403929889202e-04</internalNodes>
          <leafValues>
            8.1331387162208557e-02 -3.7692311406135559e-01</leafValues></_>
        <_>
          <internalNodes>
            0 -1 252 -1.9393231719732285e-02</internalNodes>
          <leafValues>
            2.4491997063159943e-01 -1.4063926041126251e-01</leafValues></_>
        <_>
          <internalNodes>
            0 -1 57 9.3285081675276160e-05</internalNodes>
          <leafValues>
            1.2051014602184296e-01 -2.7316465973854065e-01</leafValues></_>
        <_>
          <internalNodes>
            0 -1 54 -5.3093150199856609e-05</internalNodes>
          <leafValues>
            -3.3122092485427856e-01 1.1379671841859818e-01</leafValues></_></weakClassifiers></_>
    <!-- stage 7 -->
    <_>
      <maxWeakCount>36</maxWeakCount>
      <stageThreshold>-1.5698455572128296e+00</stageThreshold>
      <weakClassifiers>
        <_>
          <internalNodes>
            0 -1 2 2.4236276658484712e-05</internalNodes>
          <leafValues>
            -5.4317939281463623e-01 2.3923006653785706e-01</leafValues></_>
        <_>
          <internalNodes>
            0 -1 38 -5.1765255630016327e-02</internalNodes>
          <leafValues>
            2.0717339217662811e-01 -4.9921104311943054e-01</leafValues></_>
        <_>
          <internalNodes>
            0 -1 468 -2.2166117560118437e-05</internalNodes>
          <leafValues>
            2.4523767828941345e-01 -3.7803366780281067e-01</leafValues></_>
        <_>
          <internalNodes>
            0 -1 483 -4.2060765554197133e-04</internalNodes>
          <leafValues>
            -6.2780660390853882e-01 1.5301394462585449e-01</leafValues></_>
        <_>
          <internalNodes>
            0 -1 494 -2.3258093278855085e-05</internalNodes>
          <leafValues>
            1.9010411202907562e-01 -3.7483480572700500e-01</leafValues></_>
        <_>
          <internalNodes>
            0 -1 118 -2.4331518943654373e-05</internalNodes>
          <leafValues>
            2.3066243529319763e-01 -2.4553781747817993e-01</leafValues></_>
        <_>
          <internalNodes>
            0 -1 2 2.7980044251307845e-04</internalNodes>
          <leafValues>
            9.4537585973739624e-02 -6.0644567012786865e-01</leafValues></_>
        <_>
          <internalNodes>
            0 -1 104 5.9787379577755928e-03</internalNodes>
          <leafValues>
            -2.7947202324867249e-01 1.7250613868236542e-01</leafValues></_>
        <_>
          <internalNodes>
            0 -1 494 -7.0089165819808841e-04</internalNodes>
          <leafValues>
            -6.0447841882705688e-01 5.9376105666160583e-02</leafValues></_>
        <_>
          <internalNodes>
            0 -1 56 3.1459821911994368e-05</internalNodes>
          <leafValues>
            -2.3329617083072662e-01 1.5973649919033051e-01</leafValues></_>
        <_>
          <internalNodes>
            0 -1 50 6.9150775671005249e-03</internalNodes>
          <leafValues>
            1.2787921726703644e-01 -4.0502867102622986e-01</leafValues></_>
        <_>
          <internalNodes>
            0 -1 379 2.9376442544162273e-03</internalNodes>
          <leafValues>
            -1.3849318027496338e-01 2.7868875861167908e-01</leafValues></_>
        <_>
          <internalNodes>
            0 -1 140 -2.5741803256096318e-05</internalNodes>
          <leafValues>
            1.8195149302482605e-01 -2.1666632592678070e-01</leafValues></_>
        <_>
          <internalNodes>
            0 -1 323 -4.6650454401969910e-02</internalNodes>
          <leafValues>
            2.1601140499114990e-01 -1.5921755135059357e-01</leafValues></_>
        <_>
          <internalNodes>
            0 -1 222 1.9683251157402992e-02</internalNodes>
          <leafValues>
            -9.7477205097675323e-02 4.0282028913497925e-01</leafValues></_>
        <_>
          <internalNodes>
            0 -1 479 -2.6586505555314943e-05</internalNodes>
          <leafValues>
            1.7947882413864136e-01 -1.9590505957603455e-01</leafValues></_>
        <_>
          <internalNodes>
            0 -1 212 8.7101201643235981e-05</internalNodes>
          <leafValues>
            1.0761925578117371e-01 -3.0119758844375610e-01</leafValues></_>
        <_>
          <internalNodes>
            0 -1 182 -5.3497107001021504e-04</internalNodes>
          <leafValues>
            -5.5007380247116089e-01 4.7360852360725403e-02</leafValues></_>
        <_>
          <internalNodes>
            0 -1 48 2.4007158936001360e-04</internalNodes>
          <leafValues>
            -1.8461398780345917e-01 1.6263408958911896e-01</leafValues></_>
        <_>
          <internalNodes>
            0 -1 108 -2.1541098249144852e-05</internalNodes>
          <leafValues>
            1.8958325684070587e-01 -1.5293900668621063e-01</leafValues></_>
        <_>
          <internalNodes>
            0 -1 437 3.2299950718879700e-02</internalNodes>
          <leafValues>
            -9.6908695995807648e-02 3.0295422673225403e-01</leafValues></_>
        <_>
          <internalNodes>
            0 -1 385 1.1754329316318035e-02</internalNodes>
          <leafValues>
            -1.1329756677150726e-01 3.0050224065780640e-01</leafValues></_>
        <_>
          <internalNodes>
            0 -1 215 3.6521381844067946e-05</internalNodes>
          <leafValues>
            -1.9988477230072021e-01 1.5392926335334778e-01</leafValues></_>
        <_>
          <internalNodes>
            0 -1 282 -7.8350976109504700e-03</internalNodes>
          <leafValues>
            -4.7023051977157593e-01 6.7162178456783295e-02</leafValues></_>
        <_>
          <internalNodes>
            0 -1 137 9.0685300529003143e-03</internalNodes>
          <leafValues>
            3.4776140004396439e-02 -6.9297575950622559e-01</leafValues></_>
        <_>
          <internalNodes>
            0 -1 347 3.6063825245946646e-04</internalNodes>
          <leafValues>
            -1.1557993292808533e-01 2.2936978936195374e-01</leafValues></_>
        <_>
          <internalNodes>
            0 -1 250 1.9495072774589062e-04</internalNodes>
          <leafValues>
            6.5222807228565216e-02 -4.0159627795219421e-01</leafValues></_>
        <_>
          <internalNodes>
            0 -1 291 2.8018350712954998e-04</internalNodes>
          <leafValues>
            -1.0618862509727478e-01 2.7032002806663513e-01</leafValues></_>
        <_>
          <internalNodes>
            0 -1 239 6.0796709731221199e-03</internalNodes>
          <leafValues>
            -9.7597829997539520e-02 2.8113305568695068e-01</leafValues></_>
        <_>
          <internalNodes>
            0 -1 310 -7.6895681559108198e-05</internalNodes>
          <leafValues>
            1.2868051230907440e-01 -2.2048977017402649e-01</leafValues></_>
        <_>
          <internalNodes>
            0 -1 139 3.2854979508556426e-05</internalNodes>
          <leafValues>
            -2.1849744021892548e-01 1.2008383125066757e-01</leafValues></_>
        <_>
          <internalNodes>
            0 -1 461 1.8400496628601104e-04</internalNodes>
          <leafValues>
            1.0383787751197815e-01 -2.7190339565277100e-01</leafValues></_>
        <_>
          <internalNodes>
            0 -1 520 -5.9391917602624744e-05</internalNodes>
          <leafValues>
            1.4272640645503998e-01 -1.9728076457977295e-01</leafValues></_>
        <_>
          <internalNodes>
            0 -1 506 -1.4013351756148040e-04</internalNodes>
          <leafValues>
            -2.1048632264137268e-01 1.1819778382778168e-01</leafValues></_>
        <_>
          <internalNodes>
            0 -1 240 1.6170924529433250e-02</internalNodes>
          <leafValues>
            -1.0306233167648315e-01 2.4003162980079651e-01</leafValues></_>
        <_>
          <internalNodes>
            0 -1 26 -2.8577357530593872e-01</internalNodes>
          <leafValues>
            2.0548816025257111e-01 -1.2446393817663193e-01</leafValues></_></weakClassifiers></_>
    <!-- stage 8 -->
    <_>
      <maxWeakCount>49</maxWeakCount>
      <stageThreshold>-1.4390665292739868e+00</stageThreshold>
      <weakClassifiers>
        <_>
          <internalNodes>
            0 -1 2 2.4441818823106587e-05</internalNodes>
          <leafValues>
            -5.0385206937789917e-01 1.1927362531423569e-01</leafValues></_>
        <_>
          <internalNodes>
            0 -1 267 -2.0015710592269897e-01</internalNodes>
          <leafValues>
            2.1596567332744598e-01 -2.9400387406349182e-01</leafValues></_>
        <_>
          <internalNodes>
            0 -1 59 -3.0686420202255249e-01</internalNodes>
          <leafValues>
            3.1841054558753967e-01 -1.9428989291191101e-01</leafValues></_>
        <_>
          <internalNodes>
            0 -1 483 -2.4490189389325678e-05</internalNodes>
          <leafValues>
            2.0369328558444977e-01 -2.5071802735328674e-01</leafValues></_>
        <_>
          <internalNodes>
            0 -1 4 1.9651849288493395e-04</internalNodes>
          <leafValues>
            1.3154755532741547e-01 -5.2802675962448120e-01</leafValues></_>
        <_>
          <internalNodes>
            0 -1 134 -2.3475709895137697e-05</internalNodes>
          <leafValues>
            2.2857591509819031e-01 -2.2061879932880402e-01</leafValues></_>
        <_>
          <internalNodes>
            0 -1 519 -1.8845376325771213e-04</internalNodes>
          <leafValues>
            -5.4936879873275757e-01 5.8055371046066284e-02</leafValues></_>
        <_>
          <internalNodes>
            0 -1 519 2.0345463417470455e-04</internalNodes>
          <leafValues>
            1.0898356884717941e-01 -4.7322490811347961e-01</leafValues></_>
        <_>
          <internalNodes>
            0 -1 517 -2.9422571969917044e-05</internalNodes>
          <leafValues>
            1.7156492173671722e-01 -2.4461214244365692e-01</leafValues></_>
        <_>
          <internalNodes>
            0 -1 32 2.4382909032283351e-05</internalNodes>
          <leafValues>
            -2.1398821473121643e-01 1.8623210489749908e-01</leafValues></_>
        <_>
          <internalNodes>
            0 -1 164 -5.4838310461491346e-05</internalNodes>
          <leafValues>
            -3.1023636460304260e-01 1.2273766845464706e-01</leafValues></_>
        <_>
          <internalNodes>
            0 -1 517 -5.1489565521478653e-04</internalNodes>
          <leafValues>
            -4.8009580373764038e-01 6.7669756710529327e-02</leafValues></_>
        <_>
          <internalNodes>
            0 -1 123 -2.8771433790097944e-05</internalNodes>
          <leafValues>
            1.6309107840061188e-01 -2.1679146587848663e-01</leafValues></_>
        <_>
          <internalNodes>
            0 -1 179 -1.7577810212969780e-03</internalNodes>
          <leafValues>
            -6.2462002038955688e-01 7.0352099835872650e-02</leafValues></_>
        <_>
          <internalNodes>
            0 -1 236 -5.4206987842917442e-03</internalNodes>
          <leafValues>
            2.7619403600692749e-01 -1.3430401682853699e-01</leafValues></_>
        <_>
          <internalNodes>
            0 -1 151 3.1470128305954859e-05</internalNodes>
          <leafValues>
            -2.0924651622772217e-01 1.4064425230026245e-01</leafValues></_>
        <_>
          <internalNodes>
            0 -1 400 3.4296186640858650e-05</internalNodes>
          <leafValues>
            -1.9591537117958069e-01 1.5778650343418121e-01</leafValues></_>
        <_>
          <internalNodes>
            0 -1 29 4.3219805229455233e-04</internalNodes>
          <leafValues>
            7.4547201395034790e-02 -3.8549456000328064e-01</leafValues></_>
        <_>
          <internalNodes>
            0 -1 336 7.8406662214547396e-04</internalNodes>
          <leafValues>
            -1.3877588510513306e-01 2.0676776766777039e-01</leafValues></_>
        <_>
          <internalNodes>
            0 -1 183 -6.9412351876962930e-05</internalNodes>
          <leafValues>
            -3.6265942454338074e-01 8.4539398550987244e-02</leafValues></_>
        <_>
          <internalNodes>
            0 -1 256 7.5240747537463903e-04</internalNodes>
          <leafValues>
            -8.7179236114025116e-02 3.3623656630516052e-01</leafValues></_>
        <_>
          <internalNodes>
            0 -1 520 -5.8759229432325810e-05</internalNodes>
          <leafValues>
            1.4082165062427521e-01 -1.8577125668525696e-01</leafValues></_>
        <_>
          <internalNodes>
            0 -1 335 2.1931590163148940e-04</internalNodes>
          <leafValues>
            7.1244329214096069e-02 -3.4149223566055298e-01</leafValues></_>
        <_>
          <internalNodes>
            0 -1 380 2.6744985952973366e-03</internalNodes>
          <leafValues>
            -1.1486493796110153e-01 2.1925085783004761e-01</leafValues></_>
        <_>
          <internalNodes>
            0 -1 237 9.1067329049110413e-04</internalNodes>
          <leafValues>
            -1.3075026869773865e-01 1.8660697340965271e-01</leafValues></_>
        <_>
          <internalNodes>
            0 -1 218 2.8536356985569000e-02</internalNodes>
          <leafValues>
            7.4640430510044098e-02 -4.2139101028442383e-01</leafValues></_>
        <_>
          <internalNodes>
            0 -1 419 -5.2670566219603643e-05</internalNodes>
          <leafValues>
            1.4115229249000549e-01 -2.0509985089302063e-01</leafValues></_>
        <_>
          <internalNodes>
            0 -1 303 -3.8936040364205837e-03</internalNodes>
          <leafValues>
            3.1129541993141174e-01 -8.0724067986011505e-02</leafValues></_>
        <_>
          <internalNodes>
            0 -1 186 1.0766234481707215e-04</internalNodes>
          <leafValues>
            8.9028269052505493e-02 -2.7279493212699890e-01</leafValues></_>
        <_>
          <internalNodes>
            0 -1 13 -3.2201649446506053e-05</internalNodes>
          <leafValues>
            1.3357034325599670e-01 -1.7796634137630463e-01</leafValues></_>
        <_>
          <internalNodes>
            0 -1 255 3.6184906493872404e-03</internalNodes>
          <leafValues>
            -1.2259117513895035e-01 2.1193137764930725e-01</leafValues></_>
        <_>
          <internalNodes>
            0 -1 83 5.8159574866294861e-02</internalNodes>
          <leafValues>
            3.0179670080542564e-02 -7.7587640285491943e-01</leafValues></_>
        <_>
          <internalNodes>
            0 -1 371 4.5644128695130348e-03</internalNodes>
          <leafValues>
            -1.0087754577398300e-01 2.7992904186248779e-01</leafValues></_>
        <_>
          <internalNodes>
            0 -1 413 1.3861301704309881e-04</internalNodes>
          <leafValues>
            -1.1056672036647797e-01 2.1490243077278137e-01</leafValues></_>
        <_>
          <internalNodes>
            0 -1 477 -3.5302811738802120e-05</internalNodes>
          <leafValues>
            1.3391992449760437e-01 -1.8340019881725311e-01</leafValues></_>
        <_>
          <internalNodes>
            0 -1 325 1.3106483221054077e-01</internalNodes>
          <leafValues>
            -7.0976018905639648e-02 3.7178280949592590e-01</leafValues></_>
        <_>
          <internalNodes>
            0 -1 155 2.5165489205392078e-05</internalNodes>
          <leafValues>
            -1.3511042296886444e-01 1.7533330619335175e-01</leafValues></_>
        <_>
          <internalNodes>
            0 -1 311 8.4696123376488686e-03</internalNodes>
          <leafValues>
            5.9351727366447449e-02 -3.9685282111167908e-01</leafValues></_>
        <_>
          <internalNodes>
            0 -1 417 -1.9287379109300673e-04</internalNodes>
          <leafValues>
            1.3867625594139099e-01 -1.8038153648376465e-01</leafValues></_>
        <_>
          <internalNodes>
            0 -1 63 -8.3425650373101234e-03</internalNodes>
          <leafValues>
            4.3402674794197083e-01 -5.7314645498991013e-02</leafValues></_>
        <_>
          <internalNodes>
            0 -1 264 -7.0494133979082108e-05</internalNodes>
          <leafValues>
            -2.6677596569061279e-01 9.9039770662784576e-02</leafValues></_>
        <_>
          <internalNodes>
            0 -1 287 3.9837345480918884e-02</internalNodes>
          <leafValues>
            -8.2924187183380127e-02 2.8939408063888550e-01</leafValues></_>
        <_>
          <internalNodes>
            0 -1 227 -7.9569814261049032e-05</internalNodes>
          <leafValues>
            1.4981038868427277e-01 -1.5226827561855316e-01</leafValues></_>
        <_>
          <internalNodes>
            0 -1 316 2.2483542561531067e-01</internalNodes>
          <leafValues>
            -6.9065868854522705e-02 3.4233739972114563e-01</leafValues></_>
        <_>
          <internalNodes>
            0 -1 306 -1.6261048614978790e-02</internalNodes>
          <leafValues>
            2.3698420822620392e-01 -1.0678731650114059e-01</leafValues></_>
        <_>
          <internalNodes>
            0 -1 460 1.2938434258103371e-02</internalNodes>
          <leafValues>
            4.9440171569585800e-02 -5.1118451356887817e-01</leafValues></_>
        <_>
          <internalNodes>
            0 -1 386 7.6765669509768486e-03</internalNodes>
          <leafValues>
            -1.1121849715709686e-01 2.2443436086177826e-01</leafValues></_>
        <_>
          <internalNodes>
            0 -1 421 -4.2411237955093384e-03</internalNodes>
          <leafValues>
            2.1016481518745422e-01 -1.1216054856777191e-01</leafValues></_>
        <_>
          <internalNodes>
            0 -1 67 2.0099931862205267e-04</internalNodes>
          <leafValues>
            6.6915325820446014e-02 -3.7042978405952454e-01</leafValues></_></weakClassifiers></_>
    <!-- stage 9 -->
    <_>
      <maxWeakCount>55</maxWeakCount>
      <stageThreshold>-1.4436503648757935e+00</stageThreshold>
      <weakClassifiers>
        <_>
          <internalNodes>
            0 -1 495 -2.8673845008597709e-05</internalNodes>
          <leafValues>
            7.2782412171363831e-02 -5.0860983133316040e-01</leafValues></_>
        <_>
          <internalNodes>
            0 -1 127 -2.3986342057469301e-05</internalNodes>
          <leafValues>
            2.4490737915039063e-01 -2.9381987452507019e-01</leafValues></_>
        <_>
          <internalNodes>
            0 -1 362 -3.5924196708947420e-04</internalNodes>
          <leafValues>
            1.9757007062435150e-01 -3.0431723594665527e-01</leafValues></_>
        <_>
          <internalNodes>
            0 -1 132 -2.8818426653742790e-04</internalNodes>
          <leafValues>
            -5.0467532873153687e-01 1.6054816544055939e-01</leafValues></_>
        <_>
          <internalNodes>
            0 -1 101 -2.9767626983812079e-05</internalNodes>
          <leafValues>
            1.5100783109664917e-01 -3.1154325604438782e-01</leafValues></_>
        <_>
          <internalNodes>
            0 -1 523 -1.6292624059133232e-04</internalNodes>
          <leafValues>
            -4.3554559350013733e-01 1.4134572446346283e-01</leafValues></_>
        <_>
          <internalNodes>
            0 -1 2 2.5763927624211647e-05</internalNodes>
          <leafValues>
            -2.4546775221824646e-01 2.1526026725769043e-01</leafValues></_>
        <_>
          <internalNodes>
            0 -1 220 -1.9332394003868103e-01</internalNodes>
          <leafValues>
            3.0283325910568237e-01 -1.8597672879695892e-01</leafValues></_>
        <_>
          <internalNodes>
            0 -1 523 1.7318491882178932e-04</internalNodes>
          <leafValues>
            1.1329264938831329e-01 -4.2332488298416138e-01</leafValues></_>
        <_>
          <internalNodes>
            0 -1 522 -1.5344833955168724e-03</internalNodes>
          <leafValues>
            1.4899928867816925e-01 -2.6458418369293213e-01</leafValues></_>
        <_>
          <internalNodes>
            0 -1 153 -1.4338893815875053e-03</internalNodes>
          <leafValues>
            1.4729645848274231e-01 -2.7626246213912964e-01</leafValues></_>
        <_>
          <internalNodes>
            0 -1 173 2.6821693609235808e-05</internalNodes>
          <leafValues>
            -2.4059817194938660e-01 1.5786300599575043e-01</leafValues></_>
        <_>
          <internalNodes>
            0 -1 91 4.6793483197689056e-02</internalNodes>
          <leafValues>
            -1.6841682791709900e-01 2.0025378465652466e-01</leafValues></_>
        <_>
          <internalNodes>
            0 -1 8 9.3282171292230487e-05</internalNodes>
          <leafValues>
            9.4354726374149323e-02 -3.7547728419303894e-01</leafValues></_>
        <_>
          <internalNodes>
            0 -1 159 2.8000178645015694e-05</internalNodes>
          <leafValues>
            -1.7370133101940155e-01 1.6961732506752014e-01</leafValues></_>
        <_>
          <internalNodes>
            0 -1 6 4.4322283938527107e-03</internalNodes>
          <leafValues>
            7.7181361615657806e-02 -4.0813091397285461e-01</leafValues></_>
        <_>
          <internalNodes>
            0 -1 157 -1.8869919702410698e-02</internalNodes>
          <leafValues>
            1.9087801873683929e-01 -1.5583442151546478e-01</leafValues></_>
        <_>
          <internalNodes>
            0 -1 233 3.4789495170116425e-02</internalNodes>
          <leafValues>
            4.0687359869480133e-02 -5.7493591308593750e-01</leafValues></_>
        <_>
          <internalNodes>
            0 -1 491 -3.4726690500974655e-05</internalNodes>
          <leafValues>
            1.3329035043716431e-01 -1.9472569227218628e-01</leafValues></_>
        <_>
          <internalNodes>
            0 -1 465 1.5063515456859022e-04</internalNodes>
          <leafValues>
            8.1973828375339508e-02 -3.1627514958381653e-01</leafValues></_>
        <_>
          <internalNodes>
            0 -1 431 1.0014231083914638e-03</internalNodes>
          <leafValues>
            -1.3070313632488251e-01 2.1048533916473389e-01</leafValues></_>
        <_>
          <internalNodes>
            0 -1 457 -1.0876480955630541e-03</internalNodes>
          <leafValues>
            2.8680932521820068e-01 -1.1575578153133392e-01</leafValues></_>
        <_>
          <internalNodes>
            0 -1 148 -2.3733255147817545e-05</internalNodes>
          <leafValues>
            1.3438935577869415e-01 -1.9267497956752777e-01</leafValues></_>
        <_>
          <internalNodes>
            0 -1 465 -9.8052412795368582e-05</internalNodes>
          <leafValues>
            -2.9116269946098328e-01 7.8529126942157745e-02</leafValues></_>
        <_>
          <internalNodes>
            0 -1 319 -1.8822070211172104e-02</internalNodes>
          <leafValues>
            2.5027316808700562e-01 -9.8281122744083405e-02</leafValues></_>
        <_>
          <internalNodes>
            0 -1 317 -7.0517149288207293e-04</internalNodes>
          <leafValues>
            2.0794022083282471e-01 -1.0530656576156616e-01</leafValues></_>
        <_>
          <internalNodes>
            0 -1 60 1.0684266453608871e-04</internalNodes>
          <leafValues>
            7.2958298027515411e-02 -3.2013434171676636e-01</leafValues></_>
        <_>
          <internalNodes>
            0 -1 493 -1.4834977628197521e-04</internalNodes>
          <leafValues>
            -2.9241833090782166e-01 7.8103281557559967e-02</leafValues></_>
        <_>
          <internalNodes>
            0 -1 141 -2.9052975150989369e-05</internalNodes>
          <leafValues>
            1.5117745101451874e-01 -1.5274815261363983e-01</leafValues></_>
        <_>
          <internalNodes>
            0 -1 331 7.8024752438068390e-03</internalNodes>
          <leafValues>
            -9.2853240668773651e-02 2.5961774587631226e-01</leafValues></_>
        <_>
          <internalNodes>
            0 -1 314 -2.0852517336606979e-03</internalNodes>
          <leafValues>
            2.6504358649253845e-01 -8.3839304745197296e-02</leafValues></_>
        <_>
          <internalNodes>
            0 -1 100 1.9055453594774008e-04</internalNodes>
          <leafValues>
            6.4286679029464722e-02 -3.5239529609680176e-01</leafValues></_>
        <_>
          <internalNodes>
            0 -1 304 4.1721593588590622e-02</internalNodes>
          <leafValues>
            2.4702982977032661e-02 -7.3126137256622314e-01</leafValues></_>
        <_>
          <internalNodes>
            0 -1 527 2.5812088279053569e-04</internalNodes>
          <leafValues>
            7.3986038565635681e-02 -2.6909053325653076e-01</leafValues></_>
        <_>
          <internalNodes>
            0 -1 358 -4.1281804442405701e-03</internalNodes>
          <leafValues>
            2.3983892798423767e-01 -9.4485700130462646e-02</leafValues></_>
        <_>
          <internalNodes>
            0 -1 32 2.3742963094264269e-05</internalNodes>
          <leafValues>
            -1.6704456508159637e-01 1.2589302659034729e-01</leafValues></_>
        <_>
          <internalNodes>
            0 -1 337 3.6159693263471127e-04</internalNodes>
          <leafValues>
            -8.1187680363655090e-02 2.6264843344688416e-01</leafValues></_>
        <_>
          <internalNodes>
            0 -1 518 -2.2496529709314927e-05</internalNodes>
          <leafValues>
            1.4470769464969635e-01 -1.4404013752937317e-01</leafValues></_>
        <_>
          <internalNodes>
            0 -1 99 1.7169606871902943e-03</internalNodes>
          <leafValues>
            -1.4328785240650177e-01 1.4924499392509460e-01</leafValues></_>
        <_>
          <internalNodes>
            0 -1 498 4.2454118374735117e-04</internalNodes>
          <leafValues>
            -1.1473702639341354e-01 1.9678477942943573e-01</leafValues></_>
        <_>
          <internalNodes>
            0 -1 454 -5.8944962802343071e-05</internalNodes>
          <leafValues>
            1.2751197814941406e-01 -1.6141751408576965e-01</leafValues></_>
        <_>
          <internalNodes>
            0 -1 32 8.0940884072333574e-04</internalNodes>
          <leafValues>
            4.9583263695240021e-02 -3.7665182352066040e-01</leafValues></_>
        <_>
          <internalNodes>
            0 -1 41 -1.3567124493420124e-02</internalNodes>
          <leafValues>
            3.4066429734230042e-01 -7.8090339899063110e-02</leafValues></_>
        <_>
          <internalNodes>
            0 -1 58 2.6379397604614496e-04</internalNodes>
          <leafValues>
            8.4118075668811798e-02 -2.6334166526794434e-01</leafValues></_>
        <_>
          <internalNodes>
            0 -1 354 6.5720896236598492e-04</internalNodes>
          <leafValues>
            -9.1029264032840729e-02 2.3426964879035950e-01</leafValues></_>
        <_>
          <internalNodes>
            0 -1 445 1.2811973690986633e-02</internalNodes>
          <leafValues>
            3.5435829311609268e-02 -5.5872595310211182e-01</leafValues></_>
        <_>
          <internalNodes>
            0 -1 175 -1.7914004623889923e-02</internalNodes>
          <leafValues>
            3.9021411538124084e-01 -5.6827452033758163e-02</leafValues></_>
        <_>
          <internalNodes>
            0 -1 463 -2.3387936380458996e-05</internalNodes>
          <leafValues>
            1.2904788553714752e-01 -1.8753181397914886e-01</leafValues></_>
        <_>
          <internalNodes>
            0 -1 45 -2.9499881202355027e-04</internalNodes>
          <leafValues>
            -2.9180657863616943e-01 7.0805884897708893e-02</leafValues></_>
        <_>
          <internalNodes>
            0 -1 276 2.0859665237367153e-03</internalNodes>
          <leafValues>
            -7.3739536106586456e-02 3.0721709132194519e-01</leafValues></_>
        <_>
          <internalNodes>
            0 -1 295 3.4205694100819528e-04</internalNodes>
          <leafValues>
            8.8384658098220825e-02 -2.3778492212295532e-01</leafValues></_>
        <_>
          <internalNodes>
            0 -1 245 6.4688108977861702e-05</internalNodes>
          <leafValues>
            -1.7810167372226715e-01 1.4657063782215118e-01</leafValues></_>
        <_>
          <internalNodes>
            0 -1 62 -1.4924572315067053e-03</internalNodes>
          <leafValues>
            5.1962804794311523e-01 -4.8550054430961609e-02</leafValues></_>
        <_>
          <internalNodes>
            0 -1 441 7.5970515608787537e-03</internalNodes>
          <leafValues>
            -9.3945905566215515e-02 2.1843023598194122e-01</leafValues></_>
        <_>
          <internalNodes>
            0 -1 528 -5.7691993424668908e-04</internalNodes>
          <leafValues>
            -3.8130202889442444e-01 5.6337356567382813e-02</leafValues></_></weakClassifiers></_>
    <!-- stage 10 -->
    <_>
      <maxWeakCount>67</maxWeakCount>
      <stageThreshold>-1.3896821737289429e+00</stageThreshold>
      <weakClassifiers>
        <_>
          <internalNodes>
            0 -1 229 -2.3273580154636875e-05</internalNodes>
          <leafValues>
            8.1481477245688438e-03 -4.4890040159225464e-01</leafValues></_>
        <_>
          <internalNodes>
            0 -1 53 -6.7613802850246429e-02</internalNodes>
          <leafValues>
            1.5326760709285736e-01 -3.4200313687324524e-01</leafValues></_>
        <_>
          <internalNodes>
            0 -1 363 -1.0867827222682536e-04</internalNodes>
          <leafValues>
            1.9696965813636780e-01 -2.7145257592201233e-01</leafValues></_>
        <_>
          <internalNodes>
            0 -1 124 -1.2749693996738642e-04</internalNodes>
          <leafValues>
            -4.5717611908912659e-01 1.2968492507934570e-01</leafValues></_>
        <_>
          <internalNodes>
            0 -1 124 1.8634198931977153e-04</internalNodes>
          <leafValues>
            1.2048766762018204e-01 -4.5075905323028564e-01</leafValues></_>
        <_>
          <internalNodes>
            0 -1 134 -2.8655525966314599e-05</internalNodes>
          <leafValues>
            2.2581683099269867e-01 -2.2587344050407410e-01</leafValues></_>
        <_>
          <internalNodes>
            0 -1 428 -1.6908548423089087e-04</internalNodes>
          <leafValues>
            -4.2206758260726929e-01 7.6886378228664398e-02</leafValues></_>
        <_>
          <internalNodes>
            0 -1 31 -2.3364016669802368e-05</internalNodes>
          <leafValues>
            1.8240176141262054e-01 -1.9528740644454956e-01</leafValues></_>
        <_>
          <internalNodes>
            0 -1 217 3.7380050343926996e-05</internalNodes>
          <leafValues>
            -1.7698977887630463e-01 1.8354487419128418e-01</leafValues></_>
        <_>
          <internalNodes>
            0 -1 20 -1.1486846953630447e-02</internalNodes>
          <leafValues>
            1.3207893073558807e-01 -2.1494105458259583e-01</leafValues></_>
        <_>
          <internalNodes>
            0 -1 16 2.4599477648735046e-02</internalNodes>
          <leafValues>
            7.2233512997627258e-02 -5.1554846763610840e-01</leafValues></_>
        <_>
          <internalNodes>
            0 -1 482 -6.9779300247319043e-05</internalNodes>
          <leafValues>
            1.1201926320791245e-01 -2.6111072301864624e-01</leafValues></_>
        <_>
          <internalNodes>
            0 -1 31 -2.5769672356545925e-04</internalNodes>
          <leafValues>
            -3.6713492870330811e-01 6.8605296313762665e-02</leafValues></_>
        <_>
          <internalNodes>
            0 -1 353 3.1608866993337870e-04</internalNodes>
          <leafValues>
            -1.0330390185117722e-01 2.6701012253761292e-01</leafValues></_>
        <_>
          <internalNodes>
            0 -1 481 2.3438967764377594e-04</internalNodes>
          <leafValues>
            8.6173646152019501e-02 -3.4460195899009705e-01</leafValues></_>
        <_>
          <internalNodes>
            0 -1 353 -2.7912860969081521e-04</internalNodes>
          <leafValues>
            2.7485620975494385e-01 -1.0097562521696091e-01</leafValues></_>
        <_>
          <internalNodes>
            0 -1 73 -9.1701867859228514e-06</internalNodes>
          <leafValues>
            -2.1622726321220398e-01 1.1534865945577621e-01</leafValues></_>
        <_>
          <internalNodes>
            0 -1 134 4.2927468894049525e-04</internalNodes>
          <leafValues>
            -5.0511553883552551e-02 6.2091869115829468e-01</leafValues></_>
        <_>
          <internalNodes>
            0 -1 119 2.4264743842650205e-05</internalNodes>
          <leafValues>
            -1.4334492385387421e-01 1.6515810787677765e-01</leafValues></_>
        <_>
          <internalNodes>
            0 -1 106 -2.5528886908432469e-05</internalNodes>
          <leafValues>
            1.2937076389789581e-01 -1.7964352667331696e-01</leafValues></_>
        <_>
          <internalNodes>
            0 -1 69 4.3987259268760681e-03</internalNodes>
          <leafValues>
            8.9232273399829865e-02 -3.4627249836921692e-01</leafValues></_>
        <_>
          <internalNodes>
            0 -1 145 2.3954991775099188e-05</internalNodes>
          <leafValues>
            -1.7790043354034424e-01 1.3315558433532715e-01</leafValues></_>
        <_>
          <internalNodes>
            0 -1 423 -4.2710616253316402e-04</internalNodes>
          <leafValues>
            2.7672526240348816e-01 -8.5604764521121979e-02</leafValues></_>
        <_>
          <internalNodes>
            0 -1 416 -2.6006437110481784e-05</internalNodes>
          <leafValues>
            1.4083541929721832e-01 -1.7239986360073090e-01</leafValues></_>
        <_>
          <internalNodes>
            0 -1 378 1.7108915746212006e-01</internalNodes>
          <leafValues>
            -5.7586222887039185e-02 4.9794483184814453e-01</leafValues></_>
        <_>
          <internalNodes>
            0 -1 76 1.3652938650920987e-04</internalNodes>
          <leafValues>
            9.7883544862270355e-02 -2.6805046200752258e-01</leafValues></_>
        <_>
          <internalNodes>
            0 -1 464 -3.3982461900450289e-05</internalNodes>
          <leafValues>
            1.4852242171764374e-01 -1.6135200858116150e-01</leafValues></_>
        <_>
          <internalNodes>
            0 -1 524 -5.7201494928449392e-04</internalNodes>
          <leafValues>
            1.2443011254072189e-01 -1.8404237926006317e-01</leafValues></_>
        <_>
          <internalNodes>
            0 -1 500 1.5922298189252615e-04</internalNodes>
          <leafValues>
            7.9064927995204926e-02 -2.8608655929565430e-01</leafValues></_>
        <_>
          <internalNodes>
            0 -1 387 -6.3021155074238777e-04</internalNodes>
          <leafValues>
            2.6306471228599548e-01 -8.6575485765933990e-02</leafValues></_>
        <_>
          <internalNodes>
            0 -1 71 2.6771784177981317e-05</internalNodes>
          <leafValues>
            -1.3978688418865204e-01 1.6175006330013275e-01</leafValues></_>
        <_>
          <internalNodes>
            0 -1 254 -7.2191534563899040e-03</internalNodes>
          <leafValues>
            2.7594330906867981e-01 -7.4330165982246399e-02</leafValues></_>
        <_>
          <internalNodes>
            0 -1 425 -1.9049605180043727e-04</internalNodes>
          <leafValues>
            -2.2966077923774719e-01 9.3877084553241730e-02</leafValues></_>
        <_>
          <internalNodes>
            0 -1 219 6.1342623666860163e-05</internalNodes>
          <leafValues>
            -1.5700334310531616e-01 1.2221170216798782e-01</leafValues></_>
        <_>
          <internalNodes>
            0 -1 501 -1.4762156934011728e-04</internalNodes>
          <leafValues>
            -2.3205129802227020e-01 8.4389016032218933e-02</leafValues></_>
        <_>
          <internalNodes>
            0 -1 103 -5.0864629447460175e-02</internalNodes>
          <leafValues>
            5.6660306453704834e-01 -3.9546236395835876e-02</leafValues></_>
        <_>
          <internalNodes>
            0 -1 286 -3.7392294034361839e-03</internalNodes>
          <leafValues>
            3.7131312489509583e-01 -4.7776777297258377e-02</leafValues></_>
        <_>
          <internalNodes>
            0 -1 49 -2.1991573157720268e-04</internalNodes>
          <leafValues>
            -3.1719300150871277e-01 6.0763645917177200e-02</leafValues></_>
        <_>
          <internalNodes>
            0 -1 140 -5.2062197937630117e-05</internalNodes>
          <leafValues>
            1.3685515522956848e-01 -1.3991269469261169e-01</leafValues></_>
        <_>
          <internalNodes>
            0 -1 209 -2.5915930746123195e-04</internalNodes>
          <leafValues>
            -2.5746253132820129e-01 8.2741491496562958e-02</leafValues></_>
        <_>
          <internalNodes>
            0 -1 211 1.5638017794117332e-04</internalNodes>
          <leafValues>
            8.9997179806232452e-02 -2.1944622695446014e-01</leafValues></_>
        <_>
          <internalNodes>
            0 -1 368 3.7316561792977154e-04</internalNodes>
          <leafValues>
            -9.2902265489101410e-02 2.2043837606906891e-01</leafValues></_>
        <_>
          <internalNodes>
            0 -1 478 -2.8747445903718472e-03</internalNodes>
          <leafValues>
            -4.6494141221046448e-01 4.0176011621952057e-02</leafValues></_>
        <_>
          <internalNodes>
            0 -1 398 2.1834610961377621e-03</internalNodes>
          <leafValues>
            -1.1442123353481293e-01 1.6917517781257629e-01</leafValues></_>
        <_>
          <internalNodes>
            0 -1 235 -1.0067129135131836e-01</internalNodes>
          <leafValues>
            -2.5254264473915100e-01 7.7437505125999451e-02</leafValues></_>
        <_>
          <internalNodes>
            0 -1 52 2.2413223632611334e-04</internalNodes>
          <leafValues>
            8.6424931883811951e-02 -2.2672216594219208e-01</leafValues></_>
        <_>
          <internalNodes>
            0 -1 146 -2.7002246497431770e-05</internalNodes>
          <leafValues>
            1.1927388608455658e-01 -1.4739103615283966e-01</leafValues></_>
        <_>
          <internalNodes>
            0 -1 428 8.4217710536904633e-05</internalNodes>
          <leafValues>
            8.2187145948410034e-02 -2.1549946069717407e-01</leafValues></_>
        <_>
          <internalNodes>
            0 -1 439 1.8163357162848115e-03</internalNodes>
          <leafValues>
            -7.3705784976482391e-02 2.7868700027465820e-01</leafValues></_>
        <_>
          <internalNodes>
            0 -1 438 -3.9397130603902042e-04</internalNodes>
          <leafValues>
            1.5790417790412903e-01 -1.2250265479087830e-01</leafValues></_>
        <_>
          <internalNodes>
            0 -1 86 7.7779826824553311e-05</internalNodes>
          <leafValues>
            9.0622656047344208e-02 -2.1288584172725677e-01</leafValues></_>
        <_>
          <internalNodes>
            0 -1 221 -4.9382890574634075e-04</internalNodes>
          <leafValues>
            3.5948172211647034e-01 -5.4665926843881607e-02</leafValues></_>
        <_>
          <internalNodes>
            0 -1 156 -2.6064529083669186e-04</internalNodes>
          <leafValues>
            -1.8839548528194427e-01 9.8806805908679962e-02</leafValues></_>
        <_>
          <internalNodes>
            0 -1 509 2.5322209112346172e-03</internalNodes>
          <leafValues>
            3.8463287055492401e-02 -4.6574005484580994e-01</leafValues></_>
        <_>
          <internalNodes>
            0 -1 288 1.4290160033851862e-03</internalNodes>
          <leafValues>
            -4.4091138988733292e-02 4.7259306907653809e-01</leafValues></_>
        <_>
          <internalNodes>
            0 -1 169 2.7866961318068206e-05</internalNodes>
          <leafValues>
            -9.7311444580554962e-02 1.7701601982116699e-01</leafValues></_>
        <_>
          <internalNodes>
            0 -1 187 1.5152175910770893e-03</internalNodes>
          <leafValues>
            4.5646317303180695e-02 -4.1374069452285767e-01</leafValues></_>
        <_>
          <internalNodes>
            0 -1 102 6.0188537463545799e-03</internalNodes>
          <leafValues>
            -7.6419338583946228e-02 2.6156842708587646e-01</leafValues></_>
        <_>
          <internalNodes>
            0 -1 244 3.3361196983605623e-05</internalNodes>
          <leafValues>
            -1.5530979633331299e-01 1.1870012432336807e-01</leafValues></_>
        <_>
          <internalNodes>
            0 -1 277 2.4091354134725407e-05</internalNodes>
          <leafValues>
            -1.7253071069717407e-01 1.2352430820465088e-01</leafValues></_>
        <_>
          <internalNodes>
            0 -1 307 2.2987648844718933e-02</internalNodes>
          <leafValues>
            -7.6719693839550018e-02 2.5106343626976013e-01</leafValues></_>
        <_>
          <internalNodes>
            0 -1 485 2.6826356770470738e-04</internalNodes>
          <leafValues>
            8.1961743533611298e-02 -2.4974454939365387e-01</leafValues></_>
        <_>
          <internalNodes>
            0 -1 521 -2.8517920873127878e-04</internalNodes>
          <leafValues>
            1.2506918609142303e-01 -1.6339108347892761e-01</leafValues></_>
        <_>
          <internalNodes>
            0 -1 440 2.8086197562515736e-03</internalNodes>
          <leafValues>
            -1.0840984433889389e-01 1.7265126109123230e-01</leafValues></_>
        <_>
          <internalNodes>
            0 -1 475 -7.0413964567705989e-04</internalNodes>
          <leafValues>
            1.9643391668796539e-01 -1.0113196074962616e-01</leafValues></_>
        <_>
          <internalNodes>
            0 -1 507 -2.8903470374643803e-03</internalNodes>
          <leafValues>
            -5.3281754255294800e-01 3.7076767534017563e-02</leafValues></_>
        <_>
          <internalNodes>
            0 -1 447 8.1076548667624593e-05</internalNodes>
          <leafValues>
            8.9978441596031189e-02 -1.8875549733638763e-01</leafValues></_></weakClassifiers></_>
    <!-- stage 11 -->
    <_>
      <maxWeakCount>41</maxWeakCount>
      <stageThreshold>-1.4689133167266846e+00</stageThreshold>
      <weakClassifiers>
        <_>
          <internalNodes>
            0 -1 25 -9.3419753015041351e-02</internalNodes>
          <leafValues>
            1.6372391954064369e-02 -5.6197476387023926e-01</leafValues></_>
        <_>
          <internalNodes>
            0 -1 2 2.4031571228988469e-05</internalNodes>
          <leafValues>
            -3.3863449096679688e-01 2.3327821493148804e-01</leafValues></_>
        <_>
          <internalNodes>
            0 -1 61 -1.5205997624434531e-04</internalNodes>
          <leafValues>
            -4.3337130546569824e-01 1.2786257266998291e-01</leafValues></_>
        <_>
          <internalNodes>
            0 -1 61 1.6358424909412861e-04</internalNodes>
          <leafValues>
            1.5688465535640717e-01 -3.7153413891792297e-01</leafValues></_>
        <_>
          <internalNodes>
            0 -1 338 9.7165396437048912e-04</internalNodes>
          <leafValues>
            -9.9029250442981720e-02 5.1114666461944580e-01</leafValues></_>
        <_>
          <internalNodes>
            0 -1 350 -6.1568059027194977e-04</internalNodes>
          <leafValues>
            4.9649968743324280e-01 -1.3100312650203705e-01</leafValues></_>
        <_>
          <internalNodes>
            0 -1 395 -3.8430586573667824e-04</internalNodes>
          <leafValues>
            4.0441504120826721e-01 -1.0608597844839096e-01</leafValues></_>
        <_>
          <internalNodes>
            0 -1 395 4.0066748624667525e-04</internalNodes>
          <leafValues>
            -9.3573831021785736e-02 4.6625307202339172e-01</leafValues></_>
        <_>
          <internalNodes>
            0 -1 450 1.0865739022847265e-04</internalNodes>
          <leafValues>
            1.0478214174509048e-01 -3.8019204139709473e-01</leafValues></_>
        <_>
          <internalNodes>
            0 -1 127 -2.6890438675764017e-05</internalNodes>
          <leafValues>
            2.1768927574157715e-01 -1.8507012724876404e-01</leafValues></_>
        <_>
          <internalNodes>
            0 -1 185 1.5570005634799600e-03</internalNodes>
          <leafValues>
            9.1975592076778412e-02 -3.8391461968421936e-01</leafValues></_>
        <_>
          <internalNodes>
            0 -1 411 9.6891168504953384e-04</internalNodes>
          <leafValues>
            -8.9506536722183228e-02 4.3394368886947632e-01</leafValues></_>
        <_>
          <internalNodes>
            0 -1 210 1.4054577331990004e-04</internalNodes>
          <leafValues>
            1.1617694050073624e-01 -2.9118788242340088e-01</leafValues></_>
        <_>
          <internalNodes>
            0 -1 407 -2.7774698100984097e-03</internalNodes>
          <leafValues>
            3.0316916108131409e-01 -1.1348318308591843e-01</leafValues></_>
        <_>
          <internalNodes>
            0 -1 273 1.1280828621238470e-03</internalNodes>
          <leafValues>
            -6.8001732230186462e-02 5.4739534854888916e-01</leafValues></_>
        <_>
          <internalNodes>
            0 -1 517 -2.3858447093516588e-05</internalNodes>
          <leafValues>
            1.4444802701473236e-01 -2.4620829522609711e-01</leafValues></_>
        <_>
          <internalNodes>
            0 -1 92 -2.2960981004871428e-04</internalNodes>
          <leafValues>
            -3.7110421061515808e-01 8.0331377685070038e-02</leafValues></_>
        <_>
          <internalNodes>
            0 -1 168 3.8992773625068367e-04</internalNodes>
          <leafValues>
            1.2525096535682678e-01 -2.8377732634544373e-01</leafValues></_>
        <_>
          <internalNodes>
            0 -1 326 6.5802701283246279e-04</internalNodes>
          <leafValues>
            -9.4231560826301575e-02 3.6844590306282043e-01</leafValues></_>
        <_>
          <internalNodes>
            0 -1 247 -7.8809067606925964e-02</internalNodes>
          <leafValues>
            -4.1127201914787292e-01 7.7936343848705292e-02</leafValues></_>
        <_>
          <internalNodes>
            0 -1 283 1.5040023718029261e-03</internalNodes>
          <leafValues>
            1.0230122506618500e-01 -3.6291670799255371e-01</leafValues></_>
        <_>
          <internalNodes>
            0 -1 301 -6.7560910247266293e-04</internalNodes>
          <leafValues>
            4.7732824087142944e-01 -7.3707550764083862e-02</leafValues></_>
        <_>
          <internalNodes>
            0 -1 446 5.0431517884135246e-03</internalNodes>
          <leafValues>
            -9.4070822000503540e-02 3.1726649403572083e-01</leafValues></_>
        <_>
          <internalNodes>
            0 -1 234 1.9020572653971612e-04</internalNodes>
          <leafValues>
            6.8095363676548004e-02 -4.9105194211006165e-01</leafValues></_>
        <_>
          <internalNodes>
            0 -1 223 -1.2228859122842550e-03</internalNodes>
          <leafValues>
            7.7771931886672974e-01 -4.7219727188348770e-02</leafValues></_>
        <_>
          <internalNodes>
            0 -1 138 9.5757248345762491e-05</internalNodes>
          <leafValues>
            -2.1451906859874725e-01 1.4321343600749969e-01</leafValues></_>
        <_>
          <internalNodes>
            0 -1 242 -9.6304178237915039e-02</internalNodes>
          <leafValues>
            -2.8706461191177368e-01 9.6716105937957764e-02</leafValues></_>
        <_>
          <internalNodes>
            0 -1 46 2.5965058739529923e-05</internalNodes>
          <leafValues>
            -1.6216233372688293e-01 1.9250212609767914e-01</leafValues></_>
        <_>
          <internalNodes>
            0 -1 510 -7.9774559708312154e-05</internalNodes>
          <leafValues>
            1.6221149265766144e-01 -1.8359319865703583e-01</leafValues></_>
        <_>
          <internalNodes>
            0 -1 234 -9.4907212769612670e-05</internalNodes>
          <leafValues>
            -2.8235730528831482e-01 1.0920424014329910e-01</leafValues></_>
        <_>
          <internalNodes>
            0 -1 320 -1.0565593838691711e-03</internalNodes>
          <leafValues>
            5.8105564117431641e-01 -4.8155479133129120e-02</leafValues></_>
        <_>
          <internalNodes>
            0 -1 495 -5.1445857388898730e-04</internalNodes>
          <leafValues>
            -4.7594308853149414e-01 6.0119722038507462e-02</leafValues></_>
        <_>
          <internalNodes>
            0 -1 21 -5.4046269506216049e-03</internalNodes>
          <leafValues>
            3.5492399334907532e-01 -7.5650393962860107e-02</leafValues></_>
        <_>
          <internalNodes>
            0 -1 55 -3.6463982542045414e-04</internalNodes>
          <leafValues>
            -3.4408238530158997e-01 7.4203446507453918e-02</leafValues></_>
        <_>
          <internalNodes>
            0 -1 162 -1.8809633329510689e-03</internalNodes>
          <leafValues>
            4.6985343098640442e-01 -6.2789693474769592e-02</leafValues></_>
        <_>
          <internalNodes>
            0 -1 458 -5.9300649445503950e-04</internalNodes>
          <leafValues>
            2.4676911532878876e-01 -9.3330457806587219e-02</leafValues></_>
        <_>
          <internalNodes>
            0 -1 241 3.4914381103590131e-05</internalNodes>
          <leafValues>
            -1.8199336528778076e-01 1.3179363310337067e-01</leafValues></_>
        <_>
          <internalNodes>
            0 -1 230 1.0052182478830218e-03</internalNodes>
          <leafValues>
            5.0711076706647873e-02 -5.2049100399017334e-01</leafValues></_>
        <_>
          <internalNodes>
            0 -1 302 5.9262868016958237e-03</internalNodes>
          <leafValues>
            -6.6321164369583130e-02 4.4387519359588623e-01</leafValues></_>
        <_>
          <internalNodes>
            0 -1 200 -7.1365777403116226e-03</internalNodes>
          <leafValues>
            5.6739217042922974e-01 -3.8868911564350128e-02</leafValues></_>
        <_>
          <internalNodes>
            0 -1 93 6.3043044065125287e-05</internalNodes>
          <leafValues>
            1.3681019842624664e-01 -2.0970027148723602e-01</leafValues></_></weakClassifiers></_>
    <!-- stage 12 -->
    <_>
      <maxWeakCount>72</maxWeakCount>
      <stageThreshold>-1.4930874109268188e+00</stageThreshold>
      <weakClassifiers>
        <_>
          <internalNodes>
            0 -1 305 3.5521462559700012e-02</internalNodes>
          <leafValues>
            -4.4524958729743958e-01 3.4319527447223663e-02</leafValues></_>
        <_>
          <internalNodes>
            0 -1 81 -3.0695728491991758e-04</internalNodes>
          <leafValues>
            -4.3929970264434814e-01 1.2444885820150375e-01</leafValues></_>
        <_>
          <internalNodes>
            0 -1 89 -3.0692061409354210e-04</internalNodes>
          <leafValues>
            -4.2125874757766724e-01 1.0827891528606415e-01</leafValues></_>
        <_>
          <internalNodes>
            0 -1 107 -6.5603904658928514e-05</internalNodes>
          <leafValues>
            -3.1496983766555786e-01 1.3995553553104401e-01</leafValues></_>
        <_>
          <internalNodes>
            0 -1 495 -2.4608099920442328e-05</internalNodes>
          <leafValues>
            1.8383257091045380e-01 -2.2512491047382355e-01</leafValues></_>
        <_>
          <internalNodes>
            0 -1 70 3.0728951969649643e-05</internalNodes>
          <leafValues>
            -2.1745710074901581e-01 1.5841422975063324e-01</leafValues></_>
        <_>
          <internalNodes>
            0 -1 19 -3.4534789621829987e-02</internalNodes>
          <leafValues>
            1.6035969555377960e-01 -2.0786395668983459e-01</leafValues></_>
        <_>
          <internalNodes>
            0 -1 10 3.9621512405574322e-04</internalNodes>
          <leafValues>
            7.3269851505756378e-02 -4.1384050250053406e-01</leafValues></_>
        <_>
          <internalNodes>
            0 -1 31 -2.2999103748588823e-05</internalNodes>
          <leafValues>
            1.5762078762054443e-01 -2.1754530072212219e-01</leafValues></_>
        <_>
          <internalNodes>
            0 -1 484 2.4090541410259902e-04</internalNodes>
          <leafValues>
            5.4224018007516861e-02 -4.0935060381889343e-01</leafValues></_>
        <_>
          <internalNodes>
            0 -1 160 2.2246864318731241e-05</internalNodes>
          <leafValues>
            -1.8957369029521942e-01 1.4140267670154572e-01</leafValues></_>
        <_>
          <internalNodes>
            0 -1 140 -2.7046342438552529e-05</internalNodes>
          <leafValues>
            1.4551682770252228e-01 -1.8043231964111328e-01</leafValues></_>
        <_>
          <internalNodes>
            0 -1 189 -3.2885813713073730e-01</internalNodes>
          <leafValues>
            -4.7703826427459717e-01 4.4635821133852005e-02</leafValues></_>
        <_>
          <internalNodes>
            0 -1 353 3.7572317523881793e-04</internalNodes>
          <leafValues>
            -8.6599782109260559e-02 2.7816820144653320e-01</leafValues></_>
        <_>
          <internalNodes>
            0 -1 492 -2.2328951672534458e-05</internalNodes>
          <leafValues>
            1.2452340126037598e-01 -1.9374288618564606e-01</leafValues></_>
        <_>
          <internalNodes>
            0 -1 462 1.3235065853223205e-04</internalNodes>
          <leafValues>
            9.0214572846889496e-02 -2.5799840688705444e-01</leafValues></_>
        <_>
          <internalNodes>
            0 -1 342 -2.7785088866949081e-02</internalNodes>
          <leafValues>
            -6.5594005584716797e-01 3.2213475555181503e-02</leafValues></_>
        <_>
          <internalNodes>
            0 -1 357 -8.4161758422851563e-04</internalNodes>
          <leafValues>
            2.3920778930187225e-01 -1.0406073182821274e-01</leafValues></_>
        <_>
          <internalNodes>
            0 -1 167 -1.0770133882761002e-01</internalNodes>
          <leafValues>
            5.5071210861206055e-01 -2.8141176328063011e-02</leafValues></_>
        <_>
          <internalNodes>
            0 -1 452 -1.6200088430196047e-04</internalNodes>
          <leafValues>
            1.3829359412193298e-01 -1.6559949517250061e-01</leafValues></_>
        <_>
          <internalNodes>
            0 -1 519 -2.5322102010250092e-04</internalNodes>
          <leafValues>
            -4.1329902410507202e-01 5.3959008306264877e-02</leafValues></_>
        <_>
          <internalNodes>
            0 -1 231 6.5117863414343446e-05</internalNodes>
          <leafValues>
            -1.9185090065002441e-01 1.1053335666656494e-01</leafValues></_>
        <_>
          <internalNodes>
            0 -1 30 3.1393027165904641e-04</internalNodes>
          <leafValues>
            7.3390282690525055e-02 -3.0209654569625854e-01</leafValues></_>
        <_>
          <internalNodes>
            0 -1 270 6.3805322861298919e-04</internalNodes>
          <leafValues>
            -6.0918305069208145e-02 3.9955011010169983e-01</leafValues></_>
        <_>
          <internalNodes>
            0 -1 462 -9.5880284789018333e-05</internalNodes>
          <leafValues>
            -2.4479116499423981e-01 9.5154531300067902e-02</leafValues></_>
        <_>
          <internalNodes>
            0 -1 472 2.5707788765430450e-02</internalNodes>
          <leafValues>
            -6.0350734740495682e-02 3.7909182906150818e-01</leafValues></_>
        <_>
          <internalNodes>
            0 -1 442 8.1336474977433681e-04</internalNodes>
          <leafValues>
            -1.3190093636512756e-01 1.7304058372974396e-01</leafValues></_>
        <_>
          <internalNodes>
            0 -1 154 -1.9575440092012286e-04</internalNodes>
          <leafValues>
            -3.2958596944808960e-01 6.9109342992305756e-02</leafValues></_>
        <_>
          <internalNodes>
            0 -1 198 3.2331368420273066e-03</internalNodes>
          <leafValues>
            -5.3036700934171677e-02 4.5848613977432251e-01</leafValues></_>
        <_>
          <internalNodes>
            0 -1 9 -7.3664981755428016e-05</internalNodes>
          <leafValues>
            1.6210541129112244e-01 -1.2641927599906921e-01</leafValues></_>
        <_>
          <internalNodes>
            0 -1 188 4.7691934742033482e-03</internalNodes>
          <leafValues>
            6.5882451832294464e-02 -3.3484765887260437e-01</leafValues></_>
        <_>
          <internalNodes>
            0 -1 270 -8.0634094774723053e-04</internalNodes>
          <leafValues>
            4.0597242116928101e-01 -5.1902957260608673e-02</leafValues></_>
        <_>
          <internalNodes>
            0 -1 324 -2.9734958661720157e-04</internalNodes>
          <leafValues>
            1.3503104448318481e-01 -1.5614840388298035e-01</leafValues></_>
        <_>
          <internalNodes>
            0 -1 352 -4.8445959691889584e-04</internalNodes>
          <leafValues>
            2.0344394445419312e-01 -1.0249868780374527e-01</leafValues></_>
        <_>
          <internalNodes>
            0 -1 429 3.4975132439285517e-04</internalNodes>
          <leafValues>
            8.7674699723720551e-02 -2.5857937335968018e-01</leafValues></_>
        <_>
          <internalNodes>
            0 -1 184 -6.4792337070684880e-05</internalNodes>
          <leafValues>
            -2.4008688330650330e-01 7.7517472207546234e-02</leafValues></_>
        <_>
          <internalNodes>
            0 -1 508 -1.6895191220100969e-04</internalNodes>
          <leafValues>
            1.7943149805068970e-01 -1.0406582802534103e-01</leafValues></_>
        <_>
          <internalNodes>
            0 -1 432 7.1839638985693455e-04</internalNodes>
          <leafValues>
            -9.6745640039443970e-02 2.1507470309734344e-01</leafValues></_>
        <_>
          <internalNodes>
            0 -1 485 -3.2568682217970490e-04</internalNodes>
          <leafValues>
            -2.7757421135902405e-01 8.0552056431770325e-02</leafValues></_>
        <_>
          <internalNodes>
            0 -1 382 -4.0925117209553719e-03</internalNodes>
          <leafValues>
            2.3946164548397064e-01 -8.2698367536067963e-02</leafValues></_>
        <_>
          <internalNodes>
            0 -1 232 -1.3501200010068715e-04</internalNodes>
          <leafValues>
            -2.1649348735809326e-01 9.0941578149795532e-02</leafValues></_>
        <_>
          <internalNodes>
            0 -1 194 2.9587947210529819e-05</internalNodes>
          <leafValues>
            -1.2060187011957169e-01 1.6700719296932220e-01</leafValues></_>
        <_>
          <internalNodes>
            0 -1 181 -2.6806155219674110e-03</internalNodes>
          <leafValues>
            1.3605852425098419e-01 -1.3919079303741455e-01</leafValues></_>
        <_>
          <internalNodes>
            0 -1 207 2.9117156373104081e-05</internalNodes>
          <leafValues>
            -1.1346646398305893e-01 1.9682791829109192e-01</leafValues></_>
        <_>
          <internalNodes>
            0 -1 426 1.4883623225614429e-04</internalNodes>
          <leafValues>
            8.6668692529201508e-02 -2.3089089989662170e-01</leafValues></_>
        <_>
          <internalNodes>
            0 -1 351 1.5965892816893756e-04</internalNodes>
          <leafValues>
            -9.7483292222023010e-02 2.0134608447551727e-01</leafValues></_>
        <_>
          <internalNodes>
            0 -1 143 2.1032768927398138e-05</internalNodes>
          <leafValues>
            -1.5064167976379395e-01 1.2179916352033615e-01</leafValues></_>
        <_>
          <internalNodes>
            0 -1 208 -3.6819803062826395e-03</internalNodes>
          <leafValues>
            4.7836959362030029e-01 -4.0611434727907181e-02</leafValues></_>
        <_>
          <internalNodes>
            0 -1 182 -5.4529047338292003e-04</internalNodes>
          <leafValues>
            -4.8425394296646118e-01 4.7457762062549591e-02</leafValues></_>
        <_>
          <internalNodes>
            0 -1 356 -2.3040123051032424e-04</internalNodes>
          <leafValues>
            2.1500226855278015e-01 -8.9708514511585236e-02</leafValues></_>
        <_>
          <internalNodes>
            0 -1 144 2.6540755061432719e-04</internalNodes>
          <leafValues>
            5.6359421461820602e-02 -3.3043920993804932e-01</leafValues></_>
        <_>
          <internalNodes>
            0 -1 293 -3.5646208561956882e-04</internalNodes>
          <leafValues>
            2.6571872830390930e-01 -7.4901111423969269e-02</leafValues></_>
        <_>
          <internalNodes>
            0 -1 172 3.1053810380399227e-04</internalNodes>
          <leafValues>
            7.8128688037395477e-02 -2.9032954573631287e-01</leafValues></_>
        <_>
          <internalNodes>
            0 -1 115 -2.8213769837748259e-05</internalNodes>
          <leafValues>
            1.3780477643013000e-01 -1.6028057038784027e-01</leafValues></_>
        <_>
          <internalNodes>
            0 -1 33 -3.7425186019390821e-03</internalNodes>
          <leafValues>
            3.2664006948471069e-01 -6.6299527883529663e-02</leafValues></_>
        <_>
          <internalNodes>
            0 -1 161 5.5098295211791992e-02</internalNodes>
          <leafValues>
            5.4906714707612991e-02 -3.8204932212829590e-01</leafValues></_>
        <_>
          <internalNodes>
            0 -1 529 -2.3404345847666264e-04</internalNodes>
          <leafValues>
            -3.0449098348617554e-01 5.9554394334554672e-02</leafValues></_>
        <_>
          <internalNodes>
            0 -1 504 1.6353349201381207e-03</internalNodes>
          <leafValues>
            -3.4526873379945755e-02 5.6166267395019531e-01</leafValues></_>
        <_>
          <internalNodes>
            0 -1 487 -3.1875370768830180e-04</internalNodes>
          <leafValues>
            -2.6053121685981750e-01 7.7923648059368134e-02</leafValues></_>
        <_>
          <internalNodes>
            0 -1 261 -1.5758062363602221e-04</internalNodes>
          <leafValues>
            -1.9503024220466614e-01 9.8031096160411835e-02</leafValues></_>
        <_>
          <internalNodes>
            0 -1 284 -3.7663477996829897e-05</internalNodes>
          <leafValues>
            1.0523014515638351e-01 -1.6792073845863342e-01</leafValues></_>
        <_>
          <internalNodes>
            0 -1 376 -2.0589319989085197e-02</internalNodes>
          <leafValues>
            1.0085443407297134e-01 -1.8628232181072235e-01</leafValues></_>
        <_>
          <internalNodes>
            0 -1 158 1.1222212378925178e-05</internalNodes>
          <leafValues>
            -1.3306257128715515e-01 1.5195654332637787e-01</leafValues></_>
        <_>
          <internalNodes>
            0 -1 268 -3.6335065960884094e-03</internalNodes>
          <leafValues>
            3.6231854557991028e-01 -5.1157206296920776e-02</leafValues></_>
        <_>
          <internalNodes>
            0 -1 308 -5.9955727920169011e-05</internalNodes>
          <leafValues>
            -1.4798523485660553e-01 1.2159298360347748e-01</leafValues></_>
        <_>
          <internalNodes>
            0 -1 339 4.6313268830999732e-04</internalNodes>
          <leafValues>
            -1.2764286994934082e-01 1.4468431472778320e-01</leafValues></_>
        <_>
          <internalNodes>
            0 -1 23 -8.1204330921173096e-01</internalNodes>
          <leafValues>
            -7.9192543029785156e-01 2.1144300699234009e-02</leafValues></_>
        <_>
          <internalNodes>
            0 -1 271 -1.9246593583375216e-03</internalNodes>
          <leafValues>
            2.2414053976535797e-01 -9.5254018902778625e-02</leafValues></_>
        <_>
          <internalNodes>
            0 -1 260 -1.3584410771727562e-04</internalNodes>
          <leafValues>
            -1.8015633523464203e-01 9.5899462699890137e-02</leafValues></_>
        <_>
          <internalNodes>
            0 -1 190 2.9233223199844360e-01</internalNodes>
          <leafValues>
            1.6562702134251595e-02 -9.3824154138565063e-01</leafValues></_>
        <_>
          <internalNodes>
            0 -1 529 7.8640237916260958e-05</internalNodes>
          <leafValues>
            8.5976444184780121e-02 -1.8644230067729950e-01</leafValues></_>
        <_>
          <internalNodes>
